tree
version=v3
num_class=1
num_tree_per_iteration=1
label_index=0
max_feature_idx=12
objective=regression
feature_names=longitude latitude housing_median_age total_rooms total_bedrooms population households median_income ocean_proximity_<1H_OCEAN ocean_proximity_INLAND ocean_proximity_ISLAND ocean_proximity_NEAR_BAY ocean_proximity_NEAR_OCEAN
feature_infos=[-124.34999999999999:-114.31] [32.539999999999999:41.950000000000003] [1:52] [2:39320] [2:6445] [3:35682] [2:6082] [0.49990000000000001:15.0001] [0:1] [0:1] none [0:1] [0:1]
tree_sizes=2806 2860 2840 2848 2811 2847 2845 2859 2846 2850 2846 2850 2822 2850 2831 2845 2839 2864 2832 2851 2852 2841 2823 2827 2835 2809 2837 2842 2827 2831 2837 2824 2844 2835 2843 2826 2829 2835 2814 2867 2832 2835 2827 2817 2815 2836 2815 2826 2816 2837 2834 2798 2825 2821 2806 2790 2765 2783 2773 2815 2781 2805 2793 2786 2757 2801 2749 2807 2786 2811 2807 2808 2787 2800 2777 2781 2781 2777 2785 2769 2738 2757 2776 2771 2769 2780 2758 2778 2802 2781 2744 2777 2760 2764 2787 2782 2775 2767 2748 2776

Tree=0
num_leaves=31
num_cat=0
split_feature=7 9 7 9 7 0 1 0 7 0 7 1 0 2 1 1 1 0 1 2 9 9 4 0 1 0 1 8 7 12
split_gain=5.041e+13 2.27798e+13 1.14929e+13 5.47431e+12 5.2666e+12 2.06524e+12 2.01749e+12 1.89712e+12 1.79487e+12 1.70415e+12 1.63406e+12 1.23825e+12 1.07346e+12 9.79896e+11 7.16713e+11 1.00657e+12 6.8219e+11 8.18073e+11 6.11675e+11 5.56683e+11 5.52283e+11 5.21535e+11 4.90195e+11 4.72044e+11 4.41682e+11 4.36247e+11 4.18125e+11 3.94855e+11 3.8425e+11 3.73873e+11
threshold=4.1063000000000009 1.0000000180025095e-35 5.783500000000001 1.0000000180025095e-35 2.6700500000000003 -118.28499999999998 37.925000000000004 -118.22499999999998 2.8762500000000002 -122.32499999999997 6.6937500000000005 34.175000000000004 -118.36499999999999 27.500000000000004 34.015000000000008 37.905000000000008 34.175000000000004 -118.35499999999998 34.045000000000009 37.500000000000007 1.0000000180025095e-35 1.0000000180025095e-35 609.50000000000011 -117.145 37.745000000000012 -118.35499999999998 33.915000000000006 1.0000000180025095e-35 5.124950000000001 1.0000000180025095e-35
decision_type=2 2 2 2 2 2 2 2 2 2 2 2 2 2 2 2 2 2 2 2 2 2 10 2 2 2 2 2 2 2
left_child=1 4 3 7 14 6 9 16 -3 24 13 12 -11 21 25 22 17 -2 26 28 -12 -4 -16 27 -6 -1 -14 -7 -18 -13
right_child=2 8 10 -5 5 23 -8 -9 -10 11 20 29 18 -15 15 -17 19 -19 -20 -21 -22 -23 -24 -25 -26 -27 -28 -29 -30 -31
leaf_value=199632.4880763762 207375.2718300547 181710.1066546161 202178.33564680873 190238.71706141249 199649.05250525527 195612.90529517352 189370.67462637453 195419.98874715617 185536.7165743784 204567.32557986473 209865.93999307713 193314.72250118246 197511.09656808793 207222.21322795801 189736.39916118677 184528.55865633136 197129.8065170199 198797.83595268897 202996.12906754541 202587.55346427145 202794.33416937501 195407.59718519234 193701.00988365506 188095.58681141172 207090.43149073439 186549.53260920206 189298.67576477578 191538.06977048097 200648.59404083082 197601.7557486869
leaf_weight=26 252 3087 589 1094 148 283 421 1399 2033 251 734 1092 123 364 1001 291 929 199 90 388 130 141 453 335 173 1292 125 1489 466 250
leaf_count=26 252 3087 589 1094 148 283 421 1399 2033 251 734 1092 123 364 1001 291 929 199 90 388 130 141 453 335 173 1292 125 1489 466 250
internal_value=192055 188418 199109 196440 191805 193879 195725 198308 183230 196913 205551 195791 199613 202984 188568 189897 200116 203591 195934 199237 208802 200871 190972 191538 203660 186808 193372 192189 198305 194113
internal_weight=0 12963 6685 4727 7843 4780 2673 3633 5120 2252 1958 1931 589 1094 3063 1745 2234 451 338 1783 864 730 1454 2107 321 1318 248 1772 1395 1342
internal_count=19648 12963 6685 4727 7843 4780 2673 3633 5120 2252 1958 1931 589 1094 3063 1745 2234 451 338 1783 864 730 1454 2107 321 1318 248 1772 1395 1342
is_linear=0
shrinkage=1


Tree=1
num_leaves=31
num_cat=0
split_feature=7 9 7 7 9 7 0 7 0 1 0 2 1 1 1 7 9 1 1 0 9 2 1 0 8 0 7 12 0 0
split_gain=4.08321e+13 1.84516e+13 9.32036e+12 4.31355e+12 4.14022e+12 1.70011e+12 1.51283e+12 1.51048e+12 1.43191e+12 1.42754e+12 1.16745e+12 9.07262e+11 7.54584e+11 1.04084e+12 7.30099e+11 6.41916e+11 5.37604e+11 5.34953e+11 6.21634e+11 5.23793e+11 4.47349e+11 4.14991e+11 3.7654e+11 3.71327e+11 4.14235e+11 3.59858e+11 3.32788e+11 3.32588e+11 3.26338e+11 3.24836e+11
threshold=4.1063000000000009 1.0000000180025095e-35 5.6149500000000012 2.8417500000000007 1.0000000180025095e-35 6.6937500000000005 -118.26499999999999 2.5175500000000004 -118.27499999999999 37.935000000000009 -122.41499999999998 27.500000000000004 34.165000000000006 33.995000000000012 34.165000000000006 2.2088500000000004 1.0000000180025095e-35 34.025000000000013 37.725000000000001 -118.36499999999999 1.0000000180025095e-35 38.500000000000007 37.745000000000012 -117.16499999999998 1.0000000180025095e-35 -117.13499999999998 7.6757500000000016 1.0000000180025095e-35 -122.23499999999999 -122.91499999999998
decision_type=2 2 2 2 2 2 2 2 2 2 2 2 2 2 2 2 2 2 2 2 2 2 2 2 2 2 2 2 2 2
left_child=1 3 4 15 8 11 9 -3 14 10 22 16 13 -12 19 17 -4 -1 -19 -2 26 27 -5 24 -10 -8 -7 -16 -14 -17
right_child=2 7 5 6 -6 20 25 -9 23 -11 12 -13 28 -15 21 29 -18 18 -20 -21 -22 -23 -24 -25 -26 -27 -28 -29 -30 -31
leaf_value=-5953.369910071352 14903.560012568598 -9821.989143779072 8813.4151244536697 6398.599943621135 -1811.1089989306595 14274.161364997499 341.50074984733203 -6372.9576238411319 8272.110896319653 -2191.0782450027259 2080.1705297082422 13020.782312195481 6061.5327258123871 10916.361932928867 4607.2804055073047 -8077.6589409722219 2783.1488249577706 -186.14947375691335 -5602.5383445086409 7227.6184604378641 9665.1051601938107 9261.1705925641745 14516.956252810252 -672.95719946861266 2866.5621035158451 -3524.2089580509219 18612.396140440869 8663.5130418952958 1734.744866896626 -1226.4595792832467
leaf_weight=853 184 2331 736 97 1046 437 1524 2789 166 369 246 465 207 291 1056 72 185 511 362 172 130 350 139 240 971 286 297 250 1104 1782
leaf_count=853 184 2331 736 97 1046 437 1524 2789 166 369 246 465 207 291 1056 72 185 511 362 172 130 350 139 240 971 286 297 250 1104 1782
internal_value=0 -3273.7 6348.1 -225.398 3688.54 11590.4 1923.72 -7943.21 5385.98 3541.9 4557.01 9420.07 3711.19 6868.5 7086.47 -2784.53 7602.12 -4172.34 -2432.12 11195 15071.9 6203.25 11180.2 2901.3 3655.76 -269.324 16029.6 5383.74 2417.92 -1492.53
internal_weight=0 12963 6685 7843 4435 2250 4263 5120 3389 2453 2084 1386 1848 537 2012 3580 921 1726 873 356 864 1656 236 1377 1137 1810 734 1306 1311 1854
internal_count=19648 12963 6685 7843 4435 2250 4263 5120 3389 2453 2084 1386 1848 537 2012 3580 921 1726 873 356 864 1656 236 1377 1137 1810 734 1306 1311 1854
is_linear=0
shrinkage=0.1


Tree=2
num_leaves=31
num_cat=0
split_feature=7 9 7 7 9 7 0 1 0 0 1 1 7 1 7 2 4 2 7 0 1 0 0 1 1 0 1 0 1 0
split_gain=3.33456e+13 1.75128e+13 5.19892e+12 4.69649e+12 2.63257e+12 1.72848e+12 1.69079e+12 1.12534e+12 9.96135e+11 9.23659e+11 9.15167e+11 9.00793e+11 8.01668e+11 7.45383e+11 5.74155e+11 7.38543e+11 4.38283e+11 3.79311e+11 3.56215e+11 3.53562e+11 6.06101e+11 4.4596e+11 3.52748e+11 4.34792e+11 3.50912e+11 3.87629e+11 3.45324e+11 3.34079e+11 3.28715e+11 3.07059e+11
threshold=4.5427500000000007 1.0000000180025095e-35 6.2508000000000008 3.0636500000000004 1.0000000180025095e-35 3.0381000000000005 -118.27499999999999 37.935000000000009 -122.30499999999999 -118.33499999999999 34.165000000000006 34.155000000000008 2.3931500000000008 33.985000000000007 7.8581500000000011 25.500000000000004 658.50000000000011 32.500000000000007 2.2252000000000005 -118.30499999999999 37.925000000000004 -122.40499999999999 -122.21499999999999 37.955000000000005 34.175000000000004 -118.37499999999999 33.885000000000012 -117.15499999999999 34.045000000000009 -117.145
decision_type=2 2 2 2 2 2 2 2 2 2 2 2 2 2 2 2 8 2 2 2 2 2 2 2 2 2 2 2 2 2
left_child=1 3 4 12 9 18 7 8 -5 11 13 -2 16 26 15 -4 -1 -6 -3 20 21 -14 23 -13 25 -23 -10 -11 -18 -8
right_child=2 5 14 6 17 -7 29 -9 10 27 -12 22 19 -15 -16 -17 28 -19 -20 -21 -22 24 -24 -25 -26 -27 -28 -29 -30 -31
leaf_value=-4190.7136285305305 13852.32599755003 -9264.2569914324977 9270.9464104390154 9456.2738231228705 -905.95399367474738 -4633.3964575085811 800.92245364158453 -871.10228451375428 7420.6398487896004 5119.6683252866924 2574.2909834458601 11847.551193874002 9058.1507179054061 10545.947881324315 16400.349952320274 14864.414752621575 -3530.6393969870023 5260.285870935164 -7213.6663524839096 -2074.5754928041156 -4567.3152923266089 10970.028410832332 6128.0912990933894 5014.0606672450476 -186.98846821717177 1512.0776957585263 -121.72622159414919 585.29305556615191 1635.6464532558737 -2548.060900045758
leaf_weight=1721 228 1730 640 399 677 2146 1709 394 109 1057 1372 278 74 319 287 374 234 117 1660 989 192 65 1059 140 633 130 137 192 260 326
leaf_count=1721 228 1730 640 399 677 2146 1709 394 109 1057 1372 278 74 319 287 374 234 117 1660 989 192 65 1059 140 633 130 137 192 260 326
internal_value=0 -2422.71 7005.18 284.229 5114.61 -6854.25 2446.21 4072.56 4906.38 6488.64 3969.16 8002.09 -2112.67 7356.34 12451.7 11334 -3437.07 2.67329 -8260.13 -704.329 534.403 1620.36 7099.01 9558.82 955.626 4664.73 3220.22 4422.63 -811.542 264.427
internal_weight=0 14599 5049 9063 3748 5536 4765 2730 2336 2954 1937 1705 4298 565 1301 1014 2215 794 3390 2083 1094 902 1477 418 828 195 246 1249 494 2035
internal_count=19648 14599 5049 9063 3748 5536 4765 2730 2336 2954 1937 1705 4298 565 1301 1014 2215 794 3390 2083 1094 902 1477 418 828 195 246 1249 494 2035
is_linear=0
shrinkage=0.1


Tree=3
num_leaves=31
num_cat=0
split_feature=7 9 7 9 7 0 7 0 1 7 0 2 1 0 2 9 1 1 1 0 1 0 1 3 3 12 5 1 1 5
split_gain=2.7236e+13 1.08935e+13 7.38709e+12 3.40957e+12 2.30124e+12 1.1973e+12 1.16745e+12 9.88218e+11 1.10211e+12 8.32478e+11 7.99699e+11 7.929e+11 7.27318e+11 5.48446e+11 5.08595e+11 4.59413e+11 4.53931e+11 4.10857e+11 6.10013e+11 6.69978e+11 4.22416e+11 4.43242e+11 3.87478e+11 3.45181e+11 3.37281e+11 3.27178e+11 2.96325e+11 2.70918e+11 2.65131e+11 2.59198e+11
threshold=3.9034000000000004 1.0000000180025095e-35 5.5772000000000004 1.0000000180025095e-35 2.5685500000000006 -118.10499999999998 6.8725500000000013 -118.30499999999999 37.925000000000004 2.4110000000000005 -122.41499999999998 27.500000000000004 34.175000000000004 -118.37499999999999 50.500000000000007 1.0000000180025095e-35 34.045000000000009 39.105000000000011 34.045000000000009 -118.36499999999999 37.725000000000001 -122.38499999999998 37.935000000000009 443.50000000000006 2022.5000000000002 1.0000000180025095e-35 905.50000000000011 37.735000000000007 33.885000000000012 1157.5000000000002
decision_type=2 2 2 2 2 2 2 2 2 2 2 2 2 2 2 2 2 2 2 2 2 2 2 2 2 2 2 2 2 2
left_child=1 4 3 5 17 14 11 8 10 -3 27 15 13 -12 22 -4 28 18 19 -1 -20 -22 24 -8 26 -14 -2 -6 -15 -26
right_child=2 9 6 -5 7 -7 23 -9 -10 -11 12 -13 25 16 -16 -17 -18 -19 20 -21 21 -23 -24 -25 29 -27 -28 -29 -30 -31
leaf_value=11356.653090122769 5031.7935405697644 -8111.7191143984182 7322.9132156300611 -1811.5570763531168 3741.9822938012294 1581.7944416017988 2400.3366636214719 -702.06187094756672 -2549.8174131832848 -5470.1818585294213 10052.027902412416 11000.221628985291 602.22763292853779 7754.5783614309221 9718.7583803347334 2102.1508570353194 8703.5679852357844 -8751.8183374078417 545.13523928475161 -4269.1170782399477 2300.5595794968381 -5156.2860340498728 1326.2785478998178 13187.301356907195 9193.5378516950677 4555.3640728290266 1182.6653721192702 11762.777412683825 -1590.4621443388478 5640.0614385822155
leaf_weight=28 682 2124 854 1310 61 1304 31 2068 395 2722 192 539 1075 38 235 210 97 111 759 1371 105 331 277 689 262 260 283 136 151 948
leaf_count=28 682 2124 854 1310 61 1304 31 2068 395 2722 192 539 1075 38 235 210 97 111 759 1371 105 331 277 689 262 260 283 136 151 948
internal_value=0 -2964.69 4675.69 2615.1 -491.55 4068.11 9377.87 900.849 2279.15 -6627.97 3228.13 7875.45 2570.62 5917.89 5274.71 6292.5 3142.52 -2794.03 -2539.09 -3956.38 -879.845 -3360.49 4848.79 12722.9 5297.41 1372.13 3902.98 9279.18 288.435 6409.49
internal_weight=0 12024 7624 5301 7178 3991 2323 4473 2405 4846 2010 1603 1813 478 2687 1064 286 2705 2594 1399 1195 436 2452 720 2175 1335 965 197 189 1210
internal_count=19648 12024 7624 5301 7178 3991 2323 4473 2405 4846 2010 1603 1813 478 2687 1064 286 2705 2594 1399 1195 436 2452 720 2175 1335 965 197 189 1210
is_linear=0
shrinkage=0.1


Tree=4
num_leaves=31
num_cat=0
split_feature=7 9 7 7 9 7 0 2 1 0 1 1 0 1 7 1 6 9 1 0 5 7 2 12 0 0 2 2 0 1
split_gain=2.22787e+13 1.17286e+13 3.29637e+12 3.22754e+12 1.5952e+12 1.2172e+12 1.16422e+12 7.28238e+11 7.10102e+11 6.78477e+11 6.41611e+11 5.6333e+11 8.22184e+11 5.17609e+11 4.10544e+11 4.0445e+11 3.86305e+11 3.85199e+11 3.81524e+11 3.67718e+11 3.50986e+11 3.40014e+11 3.61103e+11 3.2381e+11 2.7806e+11 3.86176e+11 2.72565e+11 2.7026e+11 2.69432e+11 2.54783e+11
threshold=4.6126000000000014 1.0000000180025095e-35 3.1032500000000005 6.310150000000001 1.0000000180025095e-35 3.0775500000000005 -118.27499999999999 36.500000000000007 37.935000000000009 -122.425 34.165000000000006 38.845000000000006 -118.28499999999998 33.995000000000012 5.3250500000000009 37.735000000000007 556.50000000000011 1.0000000180025095e-35 37.725000000000001 -122.38499999999998 782.50000000000011 7.6757500000000016 26.500000000000004 1.0000000180025095e-35 -117.145 -118.16499999999998 51.500000000000007 32.500000000000007 -118.13499999999998 34.045000000000009
decision_type=2 2 2 2 2 2 2 2 2 2 2 2 2 2 2 2 2 2 2 2 2 2 2 2 2 2 2 2 2 2
left_child=1 2 11 4 7 -3 8 14 9 15 13 12 16 -11 -2 -4 18 21 20 -20 -1 22 -5 -12 25 29 -18 -6 -29 -14
right_child=3 5 6 17 27 -7 -8 -9 -10 10 23 -13 24 -15 -16 -17 26 -19 19 -21 -22 -23 -24 -25 -26 -27 -28 28 -30 -31
leaf_value=3312.9165350091371 3444.8382982738694 -6682.8246203659728 3678.4361746376439 8311.017610370227 -504.23402356549235 -3639.9749868125627 284.1000082370652 8848.626540059915 -511.50081645838748 3215.3293562885583 1692.801060081526 -7483.1337990089705 -4605.4299317098848 9273.8533428892806 6103.014574163868 11851.090831413954 1171.9658112316597 6096.9111816739778 1487.3963175142728 -4625.3334739816928 -1091.189140134632 13932.982926817614 12908.731322522597 5331.2619278751954 -5132.5008287170131 -620.89691998589899 7779.3182121829714 -743.69816909952374 9367.2534472656243 -953.23957512542495
leaf_weight=262 1218 3482 95 484 639 2112 2049 521 391 271 1219 162 705 294 1111 167 656 183 130 405 585 297 264 306 426 776 69 47 60 262
leaf_count=262 1218 3482 95 484 639 2112 2049 521 391 271 1219 162 705 294 1111 167 656 183 130 405 585 297 264 306 426 776 69 47 60 262
internal_value=0 -1920.91 268.871 5902.89 4391.34 -5534 2087.53 5468.91 3434.69 4090.71 3489.36 -1694.86 -1475.56 6367.91 4712.86 8887.72 -68.6652 10329.2 -1049.39 -3140 271.12 11070.4 9933.74 2422.88 -2842.25 -2282.5 1800.8 274.633 4925.99 -3615.9
internal_weight=0 14824 9230 4824 3596 5594 4792 2850 2743 2352 2090 4438 4276 565 2329 262 2107 1228 1382 535 847 1045 748 1525 2169 1743 725 746 107 967
internal_count=19648 14824 9230 4824 3596 5594 4792 2850 2743 2352 2090 4438 4276 565 2329 262 2107 1228 1382 535 847 1045 748 1525 2169 1743 725 746 107 967
is_linear=0
shrinkage=0.1


Tree=5
num_leaves=31
num_cat=0
split_feature=7 7 9 9 0 7 7 2 0 1 1 0 0 3 1 0 1 7 9 1 5 3 0 1 2 4 0 7 0 0
split_gain=1.82492e+13 6.08479e+12 5.69057e+12 3.26529e+12 1.16168e+12 1.00335e+12 7.85091e+11 6.48458e+11 4.94604e+11 6.34264e+11 4.72744e+11 5.83887e+11 4.53515e+11 4.49449e+11 4.46661e+11 4.61391e+11 4.25486e+11 4.08578e+11 3.58542e+11 3.27213e+11 3.23972e+11 3.11804e+11 2.84127e+11 5.72784e+11 3.72559e+11 2.80242e+11 2.46632e+11 2.37978e+11 2.3741e+11 2.33654e+11
threshold=3.5471000000000004 5.5772000000000004 1.0000000180025095e-35 1.0000000180025095e-35 -118.10499999999998 2.5004000000000004 7.3298500000000013 26.500000000000004 -118.30499999999999 37.925000000000004 37.935000000000009 -122.21499999999999 -122.32499999999997 2022.5000000000002 34.165000000000006 -118.37499999999999 34.175000000000004 2.2252000000000005 1.0000000180025095e-35 34.045000000000009 976.50000000000011 443.50000000000006 -117.16499999999998 33.675000000000004 36.500000000000007 727.50000000000011 -122.38499999999998 4.6126000000000014 -118.36499999999999 -121.87499999999999
decision_type=2 2 2 2 2 2 2 2 2 2 2 2 2 2 2 2 2 2 2 2 2 2 2 2 2 8 2 2 2 2
left_child=2 3 5 4 10 25 7 18 9 12 11 -2 -7 20 15 -14 28 -4 -3 -17 -13 -8 23 24 -6 -1 -12 -5 -15 -18
right_child=1 6 17 27 22 8 21 -9 -10 -11 26 13 14 16 -16 19 29 -19 -20 -21 -22 -23 -24 -25 -26 -27 -28 -29 -30 -31
leaf_value=-2932.4091414694326 7474.3987041871196 6124.8766639709474 -6858.3771601435501 -2648.2113577495379 3950.2985548337306 6593.6588677575746 873.43234863281259 9191.5898910078486 -1100.5619043816698 -2810.0362941172771 2893.7013495492297 3307.8081788722639 9477.5024969829774 10616.34602884802 407.07208866481096 -774.06547598745317 5554.52236437381 -4873.6242637065207 1718.1383936608356 7289.1118064778639 -660.48803739780772 11732.030569637524 -1514.6088561852359 294.7121305912857 15242.459051513673 -142.92392620025564 -2261.0185074884189 -177.90021308690206 5893.3401648734034 2326.4756227749149
leaf_weight=2048 537 936 1730 1274 336 197 28 653 1611 315 223 908 123 161 1023 153 412 2590 230 75 266 476 383 964 32 437 159 562 314 492
leaf_count=2048 537 936 1730 1274 336 197 28 653 1611 315 223 908 123 161 1023 153 412 2590 230 75 266 476 383 964 32 437 159 562 314 492
internal_value=0 3199.71 -2902.79 1732.23 3015.08 -905.521 7636.28 6668.59 186.218 1285.37 4066.87 4477.15 2106.54 3846.7 1463.19 4541.27 5070.94 -5668.44 5255.62 1878.3 2408.69 11128.8 885.753 1575.95 4932.23 -2441.86 748.15 -1892.05 7494.19 3797.67
internal_weight=0 9346 10302 7023 5187 5982 2323 1819 3497 1886 3472 3090 1571 2553 1374 351 1379 4320 1166 228 1174 504 1715 1332 368 2485 382 1836 475 904
internal_count=19648 9346 10302 7023 5187 5982 2323 1819 3497 1886 3472 3090 1571 2553 1374 351 1379 4320 1166 228 1174 504 1715 1332 368 2485 382 1836 475 904
is_linear=0
shrinkage=0.1


Tree=6
num_leaves=31
num_cat=0
split_feature=7 9 7 7 9 7 0 9 2 1 0 1 1 7 0 0 2 1 0 0 1 1 0 0 8 1 0 1 0 8
split_gain=1.4907e+13 7.08087e+12 2.63847e+12 1.89986e+12 1.11042e+12 7.53654e+11 7.13349e+11 5.65077e+11 5.44362e+11 5.36005e+11 5.10285e+11 4.64182e+11 4.66313e+11 3.81909e+11 3.80531e+11 5.32306e+11 3.66977e+11 3.5813e+11 4.87487e+11 3.33602e+11 3.66183e+11 2.46328e+11 4.16595e+11 2.1359e+11 3.39957e+11 2.02218e+11 2.40159e+11 2.01729e+11 1.98451e+11 3.00432e+11
threshold=4.3974000000000011 1.0000000180025095e-35 5.8446500000000006 2.9289000000000001 1.0000000180025095e-35 2.8762500000000002 -118.25499999999998 1.0000000180025095e-35 37.500000000000007 37.935000000000009 -122.23499999999999 34.175000000000004 33.985000000000007 7.1909500000000008 -122.91499999999998 -118.29499999999999 26.500000000000004 34.605000000000011 -122.38499999999998 -118.30499999999999 34.155000000000008 37.57500000000001 -121.87499999999999 -117.145 1.0000000180025095e-35 38.785000000000004 -122.38499999999998 38.235000000000007 -117.145 1.0000000180025095e-35
decision_type=2 2 2 2 2 2 2 2 2 2 2 2 2 2 2 2 2 2 2 2 2 2 2 2 2 2 2 2 2 2
left_child=1 3 4 14 8 -3 9 13 19 10 -5 12 -12 16 -1 17 -4 -16 27 20 -2 22 -13 24 -8 26 -11 -19 29 -17
right_child=2 5 7 6 -6 -7 23 -9 -10 25 11 21 -14 -15 15 28 -18 18 -20 -21 -22 -23 -24 -25 -26 -27 -28 -29 -30 -31
leaf_value=-6436.0883695760349 8834.5154888102225 -5581.0405173120971 5777.7537123252614 5768.3476489516643 -465.63059474619189 -3201.5191472343704 3596.7129408573765 3466.638113972982 6789.1950483100727 2386.17618106071 1102.3551552022207 4729.0299888178988 6453.0000836151576 10540.800865961501 1678.0611122007751 1130.0787172803691 9563.7591955717126 5732.5821474595505 -2356.7731064199816 1779.1706645620809 3583.9028874834653 -1854.2752592959646 353.32183373524595 -2392.1858331386416 -236.85940655120359 -5841.3176180127648 -3062.3990345269863 -1174.4524808443509 -4541.2859615670923 -2608.3963454330815
leaf_weight=157 150 3087 696 507 796 2340 276 300 491 188 272 318 406 484 679 255 405 121 812 1029 1160 236 689 331 1429 71 142 65 387 1369
leaf_count=157 150 3087 696 507 796 2340 276 300 491 188 272 318 406 484 679 255 405 121 812 1029 1160 236 689 331 1429 71 142 65 387 1369
internal_value=0 -1719.78 4411.63 46.8111 2834.01 -4555.04 1359.79 7446.35 3762.11 2387.06 2946.45 2201.68 4306.43 8199.61 -1614.48 -1409.22 7170.43 -93.6155 -1298.99 3126.67 4185.12 1053.63 1735.12 -67.58 383.707 -999.983 41.6378 3318.83 -2506.32 -2021.38
internal_weight=0 14137 5511 8710 3626 5427 4865 1885 2830 2829 2428 1921 678 1585 3845 3688 1101 1677 998 2339 1310 1243 1007 2036 1705 401 330 186 2011 1624
internal_count=19648 14137 5511 8710 3626 5427 4865 1885 2830 2829 2428 1921 678 1585 3845 3688 1101 1677 998 2339 1310 1243 1007 2036 1705 401 330 186 2011 1624
is_linear=0
shrinkage=0.1


Tree=7
num_leaves=31
num_cat=0
split_feature=7 9 7 7 7 0 9 1 1 7 2 2 0 1 1 1 12 1 0 0 7 2 0 12 1 0 0 1 7 3
split_gain=1.22404e+13 6.50892e+12 1.98754e+12 1.31155e+12 8.61771e+11 7.3563e+11 7.29889e+11 4.25546e+11 4.49588e+11 4.01445e+11 3.98634e+11 3.47334e+11 3.05336e+11 2.85591e+11 2.95053e+11 2.56247e+11 2.93013e+11 2.56007e+11 3.00541e+11 2.52753e+11 2.39819e+11 3.18574e+11 2.39083e+11 2.7728e+11 2.36536e+11 4.13103e+11 2.23741e+11 2.7026e+11 2.15116e+11 2.0427e+11
threshold=4.8827500000000006 1.0000000180025095e-35 3.1032500000000005 6.310150000000001 3.2254000000000005 -118.27499999999999 1.0000000180025095e-35 34.155000000000008 33.995000000000012 2.1201000000000003 36.500000000000007 47.500000000000007 -122.30499999999999 34.025000000000013 37.725000000000001 38.785000000000004 1.0000000180025095e-35 33.885000000000012 -118.37499999999999 -119.26499999999999 7.8581500000000011 25.500000000000004 -117.15499999999999 1.0000000180025095e-35 37.925000000000004 -122.32499999999997 -118.28499999999998 34.605000000000011 2.1032500000000005 1623.5000000000002
decision_type=2 2 2 2 2 2 2 2 2 2 2 2 2 2 2 2 2 2 2 2 2 2 2 2 2 2 2 2 2 2
left_child=1 2 9 6 28 7 10 8 17 13 22 15 -13 -1 -15 16 -9 -4 -19 -18 21 -5 23 -2 25 -11 27 -27 -3 -7
right_child=3 4 5 20 -6 29 -8 11 -10 24 -12 12 -14 14 -16 -17 19 18 -20 -21 -22 -23 -24 -25 -26 26 -28 -29 -30 -31
leaf_value=-4038.1544204754123 3740.4311551894411 -5771.6660167691443 5837.9748417745113 5467.6792914721373 -2237.5030974439856 -1208.4496291753858 460.88235326613824 1112.5820590388855 8139.7002382020701 5493.2741355439539 7456.6408496915992 7269.3247364569152 1418.9245624756973 482.44951916417335 -3567.4726757110498 -5245.7746805826828 4938.4930271314543 7887.4853412828952 -2148.0174980355682 -1751.8163915460759 10185.850600377526 9274.5843621433796 -50.090893380301338 7453.8207443826705 -3407.3313616965715 1901.5176560552497 -1435.6031294793486 -1119.8945950195737 -4219.8085425485724 848.05072050006356
leaf_weight=723 1468 1435 131 591 1991 688 548 1659 259 117 386 218 151 423 313 54 391 38 139 66 287 350 140 233 273 608 1404 577 2366 1621
leaf_count=723 1468 1435 131 591 1991 688 548 1659 259 117 386 218 151 423 313 54 391 38 139 66 287 350 140 233 273 608 1404 577 2366 1621
internal_value=0 -1262.53 301.322 4934.39 -3922.87 1587.11 3730.27 2592.05 5068.97 -1267.52 4534.77 2038.91 4875.26 -2626.54 -1239.87 1556.6 1730.2 2486.77 6.49724 3972.28 7655.41 6883.64 3922.15 4249.08 -601.924 -318.895 -581.554 430.332 -4805.68 235.287
internal_weight=0 15645 9853 4003 5792 5415 2775 3106 567 4438 2227 2539 369 1459 736 2170 2116 308 177 457 1228 941 1841 1701 2979 2706 2589 1185 3801 2309
internal_count=19648 15645 9853 4003 5792 5415 2775 3106 567 4438 2227 2539 369 1459 736 2170 2116 308 177 457 1228 941 1841 1701 2979 2706 2589 1185 3801 2309
is_linear=0
shrinkage=0.1


Tree=8
num_leaves=31
num_cat=0
split_feature=7 7 9 9 0 7 7 4 5 2 4 2 12 4 2 5 5 7 4 6 2 7 5 4 3 5 2 1 9 2
split_gain=1.00493e+13 3.38083e+12 2.99863e+12 1.62087e+12 6.69099e+11 5.95963e+11 5.54733e+11 4.00244e+11 3.72508e+11 3.4707e+11 3.32808e+11 3.31861e+11 2.73794e+11 2.73022e+11 3.06648e+11 2.68488e+11 2.34898e+11 2.34788e+11 2.26172e+11 2.12358e+11 2.28099e+11 2.26662e+11 1.89773e+11 2.19741e+11 1.87202e+11 1.86188e+11 1.84152e+11 2.75267e+11 1.78463e+11 1.75577e+11
threshold=3.5471000000000004 5.3250500000000009 1.0000000180025095e-35 1.0000000180025095e-35 -118.09499999999998 6.5364000000000013 2.4110000000000005 416.50000000000006 1197.5000000000002 36.500000000000007 477.50000000000006 46.500000000000007 1.0000000180025095e-35 581.50000000000011 18.500000000000004 956.50000000000011 1057.5000000000002 2.2252000000000005 727.50000000000011 39.500000000000007 26.500000000000004 7.8581500000000011 1674.5000000000002 862.50000000000011 976.50000000000011 1931.5000000000002 38.500000000000007 34.195000000000007 1.0000000180025095e-35 18.500000000000004
decision_type=2 2 2 2 2 2 2 8 2 2 10 2 2 8 2 2 2 2 8 2 2 2 2 10 2 2 2 2 2 2
left_child=2 3 6 4 7 9 18 16 -9 12 15 25 28 -10 -15 -8 -2 -4 -1 -7 21 -21 -16 -24 -11 29 -5 -28 -3 -12
right_child=1 5 17 26 -6 19 10 8 13 24 11 -13 -14 14 22 -17 -18 -19 -20 20 -22 -23 23 -25 -26 -27 27 -29 -30 -31
leaf_value=-2400.973078693341 2257.4970022761586 3741.5515982826992 -5063.7309734684059 -1794.9577104051759 341.30195004008175 -2291.4546978546227 164.13525192048203 6654.5947465867275 1055.0617835412004 -785.84220225016281 -1004.5421196670894 5108.2178661367989 7273.4065331762968 1449.8126502749794 7967.9418740243627 -2256.0657097486933 -1091.5190273369174 -3559.1794953446406 241.57296642381317 5247.7337764651138 9773.6252547172662 9176.4791079842089 1886.8245391695373 6631.6120501254472 8497.2492100078471 -581.90116130003003 7935.466380859375 -1722.9474427964954 984.21187581601362 2285.1823059114636
leaf_weight=1864 1318 1092 1730 1602 1530 23 1041 390 426 24 211 177 182 285 198 819 249 2590 392 483 292 211 203 188 229 776 50 72 299 702
leaf_count=1864 1318 1092 1730 1602 1530 23 1041 390 426 24 211 177 182 285 198 819 249 2590 392 483 292 211 203 188 229 776 50 72 299 702
internal_value=0 2374.41 -2154.07 1119.39 2066.25 5256.76 -704.235 2876.56 3944 4178.98 45.0848 988.66 3626.07 3130.83 4142.58 -901.534 1725.33 -4161.7 -1941.81 7207.22 7428.79 6442.21 5445.54 4168.21 7616.64 556.947 -1509.75 2235.42 3148.85 1524.91
internal_weight=0 9346 10302 6511 4787 2835 5982 3257 1690 1826 3726 1866 1573 1300 874 1860 1567 4320 2256 1009 986 694 589 391 253 1689 1724 122 1391 913
internal_count=19648 9346 10302 6511 4787 2835 5982 3257 1690 1826 3726 1866 1573 1300 874 1860 1567 4320 2256 1009 986 694 589 391 253 1689 1724 122 1391 913
is_linear=0
shrinkage=0.1


Tree=9
num_leaves=31
num_cat=0
split_feature=7 9 7 7 2 2 9 7 4 5 5 0 1 0 2 4 1 0 0 0 1 0 9 12 4 12 1 2 5 3
split_gain=8.22594e+12 4.05176e+12 1.16508e+12 1.11879e+12 5.45512e+11 4.73946e+11 4.63598e+11 4.6e+11 3.9502e+11 4.12956e+11 3.31858e+11 3.14768e+11 4.23929e+11 8.98362e+11 2.68777e+11 2.64408e+11 2.40639e+11 4.15477e+11 3.17409e+11 2.34638e+11 2.33848e+11 4.28076e+11 2.17085e+11 2.15812e+11 2.14969e+11 2.06456e+11 2.76517e+11 2.00002e+11 2.09534e+11 1.8939e+11
threshold=4.6352000000000002 1.0000000180025095e-35 3.1032500000000005 6.2508000000000008 36.500000000000007 47.500000000000007 1.0000000180025095e-35 3.1261000000000005 477.50000000000006 1387.5000000000002 1111.5000000000002 -122.91499999999998 34.045000000000009 -118.38499999999998 19.500000000000004 711.50000000000011 34.605000000000011 -122.38499999999998 -118.22499999999998 -117.15499999999999 33.885000000000012 -117.145 1.0000000180025095e-35 1.0000000180025095e-35 327.50000000000006 1.0000000180025095e-35 35.125000000000007 18.500000000000004 1961.5000000000002 1214.5000000000002
decision_type=2 2 2 2 2 2 2 2 10 2 2 2 2 2 2 10 2 2 2 2 2 2 2 2 10 2 2 2 2 2
left_child=1 2 11 4 6 8 19 -3 10 14 24 -1 13 -13 -10 -11 18 -18 -14 23 21 -15 -5 -2 -4 -19 -27 -17 -29 -6
right_child=3 7 5 22 29 -7 -8 -9 9 15 -12 12 16 20 -16 27 17 25 -20 -21 -22 -23 -24 -25 -26 26 -28 28 -30 -31
leaf_value=-5188.0969956137924 2697.9699139829263 -3955.4522611527773 -115.28414604720929 6661.6341548840492 1355.1495063194861 4072.9227001048903 -210.70567975858364 -2069.5236903508189 800.58631652399163 -525.84996340127259 -1960.0380183594884 9818.7493965148933 2533.8636025291703 488.77642945685852 6009.5726480386638 302.12587272391835 2955.4811828354659 -2317.8266709864506 -1613.8937806277888 -680.15010175947418 -3269.1305428785117 -3611.3907952575059 3027.4641773204112 5637.4183641781101 2278.6864532653781 -7674.583715820313 4233.5374612514788 6128.3020711432564 2016.6738375709135 6338.4364290468257
leaf_weight=176 1763 3592 1086 1108 91 513 656 2021 141 614 646 64 654 633 333 363 236 819 257 177 1045 426 193 291 573 24 104 180 398 471
leaf_count=176 1763 3592 1086 1108 91 513 656 2021 141 614 646 64 654 633 333 363 236 819 257 177 1045 426 193 291 573 24 104 180 398 471
internal_value=0 -1155.36 126.869 3623.69 2681.1 1198.74 2126.22 -3276.41 858.538 1876.1 -37.1782 -1043.79 -872.649 -1852.81 4460.06 1088.44 142.153 -798.57 1363.75 2813.37 -2207.84 -1160.58 6122.51 3114.42 711.566 -1734.11 2000.76 2141.77 3297.11 5531.53
internal_weight=0 14898 9285 4750 3449 4847 2887 5613 4334 2029 2305 4438 4262 2168 474 1555 2094 1183 911 2231 2104 1059 1301 2054 1659 947 128 941 578 562
internal_count=19648 14898 9285 4750 3449 4847 2887 5613 4334 2029 2305 4438 4262 2168 474 1555 2094 1183 911 2231 2104 1059 1301 2054 1659 947 128 941 578 562
is_linear=0
shrinkage=0.1


Tree=10
num_leaves=31
num_cat=0
split_feature=7 9 7 9 7 9 7 4 5 2 4 0 5 4 7 5 4 5 5 4 0 1 0 1 1 1 2 2 0 5
split_gain=6.78805e+12 2.34659e+12 1.8617e+12 6.71739e+11 5.15601e+11 4.84911e+11 4.13214e+11 3.50579e+11 4.40429e+11 2.96938e+11 2.83796e+11 2.7109e+11 2.38917e+11 2.46465e+11 2.36739e+11 2.34552e+11 1.96573e+11 1.96129e+11 1.92802e+11 2.53759e+11 1.90819e+11 1.65111e+11 5.78375e+11 3.9615e+11 1.63244e+11 2.98467e+11 1.68238e+11 1.59811e+11 2.68774e+11 1.5959e+11
threshold=3.8253500000000007 1.0000000180025095e-35 5.124950000000001 1.0000000180025095e-35 2.5004000000000004 1.0000000180025095e-35 6.6937500000000005 423.50000000000006 1292.5000000000002 50.500000000000007 640.50000000000011 -118.03499999999998 918.50000000000011 275.50000000000006 2.3931500000000008 1946.5000000000002 592.50000000000011 1704.5000000000002 1092.5000000000002 379.50000000000006 -122.40499999999999 34.375000000000007 -118.00499999999998 36.835000000000008 34.015000000000008 37.725000000000001 51.500000000000007 33.500000000000007 -118.12499999999999 641.50000000000011
decision_type=2 2 2 2 2 2 2 8 2 2 10 2 2 10 2 2 8 2 2 10 2 2 2 2 2 2 2 2 2 2
left_child=1 4 3 7 24 6 11 12 -9 10 18 -4 13 -2 -3 -12 -10 -18 19 29 -11 22 -16 -23 -1 -26 -27 -7 -29 -6
right_child=2 14 5 -5 9 27 -8 8 16 20 15 -13 -14 -15 21 -17 17 -19 -20 -21 -22 23 -24 -25 25 26 -28 28 -30 -31
leaf_value=-2418.4120648738713 279.86869086461354 -4038.4992373782561 4654.5605454331599 -1106.4532188014321 945.47164128506347 814.94618836936434 6642.3517860329448 5308.887535892909 -196.64721249285793 6125.1716202863563 2845.6301396809822 2159.053314767712 -879.23221764179493 3425.2443954242854 8281.5951946390087 118.30767459818793 5211.7819903534973 1695.6325644820358 -1427.7374714801188 2410.6282006504562 1361.9203925711086 -5291.4617069045016 -2162.4801081135824 -2177.4174926769929 320.337453164718 -3785.0681628725574 500.5443758877841 -376.96300279771958 11520.849764623397 -1495.3400578263227
leaf_weight=1108 604 2088 1389 1179 442 513 734 461 382 127 542 634 644 424 58 754 207 679 1292 396 249 574 618 1417 879 377 121 37 39 680
leaf_count=1108 604 2088 1389 1179 442 513 734 461 382 127 542 634 644 424 58 754 207 679 1292 396 249 574 618 1417 879 377 121 37 39 680
internal_value=0 -1528.41 2260.41 950.45 -359.529 4053.48 4609.91 1663.5 2661.92 281.033 34.7235 3872.48 631.052 1577.18 -3241.04 1258.9 1699.57 2517.13 -529.879 234.306 2970.78 -2616.72 -1266.39 -3075.19 -1514.86 -787.82 -2743.78 1448.95 5728.49 -533.808
internal_weight=0 11722 7926 4580 6967 3346 2757 3401 1729 4482 4106 2023 1672 1028 4755 1296 1268 886 2810 1518 376 2667 676 1991 2485 1377 498 589 76 1122
internal_count=19648 11722 7926 4580 6967 3346 2757 3401 1729 4482 4106 2023 1672 1028 4755 1296 1268 886 2810 1518 376 2667 676 1991 2485 1377 498 589 76 1122
is_linear=0
shrinkage=0.1


Tree=11
num_leaves=31
num_cat=0
split_feature=7 9 7 2 7 9 4 2 5 0 1 9 7 6 0 0 7 5 4 4 1 0 1 0 1 0 1 1 2 5
split_gain=5.50994e+12 2.17155e+12 1.32058e+12 5.77051e+11 5.37797e+11 3.9433e+11 3.37144e+11 3.00269e+11 2.79065e+11 2.69245e+11 2.90399e+11 2.53444e+11 2.22271e+11 2.13067e+11 1.98953e+11 1.95508e+11 1.93207e+11 1.91148e+11 2.32721e+11 1.89566e+11 1.77036e+11 3.68981e+11 3.09782e+11 2.25359e+11 2.70463e+11 1.86763e+11 1.7459e+11 1.58097e+11 2.13649e+11 1.67918e+11
threshold=4.0584000000000016 1.0000000180025095e-35 5.8446500000000006 38.500000000000007 2.6828500000000006 1.0000000180025095e-35 418.50000000000006 47.500000000000007 782.50000000000011 -118.29499999999999 34.155000000000008 1.0000000180025095e-35 2.3931500000000008 286.50000000000006 -118.03499999999998 -117.15499999999999 9.1381500000000013 1249.5000000000002 640.50000000000011 434.50000000000006 34.035000000000004 -118.41499999999998 37.905000000000008 -122.30499999999999 37.595000000000006 -118.23499999999999 37.855000000000011 37.665000000000006 26.500000000000004 807.50000000000011
decision_type=2 2 2 2 2 2 10 2 2 2 2 2 2 2 2 2 2 2 10 10 2 2 2 2 2 2 2 2 2 2
left_child=1 4 3 5 20 9 8 15 13 10 -2 14 -3 -6 -4 17 -16 27 -19 -5 21 -1 23 -22 25 -25 -26 28 -8 -30
right_child=2 12 11 19 6 -7 7 -9 -10 -11 -12 -13 -14 -15 16 -17 -18 18 -20 -21 22 -23 -24 24 26 -27 -28 -29 29 -31
leaf_value=10327.055798339845 5778.8349596216049 -3634.6493046961532 5865.0828745628496 2895.6887645721436 110.44483154252259 -672.75618070964401 1141.5405961778431 4437.3835165152877 -1537.0997696124541 501.82220387315959 1874.2828629647288 1864.9495268147789 -2287.5510800799689 4153.8349300147593 3052.5893066088361 -2057.6251368527296 10829.790636488971 -940.67671460908048 1525.6757127863657 6272.6780201299143 4911.2885024050447 -2172.7542682414787 -3397.221535030028 1468.9161742372946 -3714.3048520356992 -1846.274404689244 3717.9374872419571 -528.01898974609378 14784.221232299804 5138.7261649466855
leaf_weight=24 218 2088 1023 568 684 1096 153 266 1097 1402 1509 300 2963 161 528 205 34 580 1124 235 94 1474 294 704 259 224 36 100 20 185
leaf_count=24 218 2088 1023 568 684 1096 153 266 1097 1402 1509 300 2963 161 528 205 34 580 1124 235 94 1474 294 704 259 224 36 100 20 185
internal_value=0 -1233.81 2272.9 1426.64 -175.092 959.596 514.56 1251.8 -485.009 1531.36 2367.16 4530.21 -2844.42 880.842 5034.67 893.813 3523.1 1173.67 686.19 3883.97 -1189.94 -1972.49 -462.278 192.903 -169.753 668.698 -2807.32 2987.34 3969.29 6079.75
internal_weight=0 12735 6913 5028 7684 4225 4575 2633 1942 3129 1727 1885 5051 845 1585 2367 562 2162 1704 803 3109 1498 1611 1317 1223 928 295 458 358 205
internal_count=19648 12735 6913 5028 7684 4225 4575 2633 1942 3129 1727 1885 5051 845 1585 2367 562 2162 1704 803 3109 1498 1611 1317 1223 928 295 458 358 205
is_linear=0
shrinkage=0.1


Tree=12
num_leaves=31
num_cat=0
split_feature=7 9 7 7 0 4 7 12 5 2 1 0 1 0 1 0 1 6 2 6 5 0 1 1 0 9 1 5 3 1
split_gain=4.58377e+12 2.31221e+12 7.90021e+11 3.84814e+11 3.75955e+11 3.41099e+11 3.39669e+11 3.32645e+11 2.87187e+11 2.5569e+11 2.53577e+11 2.92884e+11 2.77676e+11 3.29235e+11 4.02413e+11 2.14079e+11 2.01007e+11 1.98201e+11 2.21388e+11 1.92682e+11 1.90213e+11 1.70048e+11 2.5471e+11 2.22679e+11 2.60363e+11 1.6868e+11 1.60355e+11 1.7242e+11 1.55508e+11 1.52127e+11
threshold=5.0324000000000009 1.0000000180025095e-35 3.3184500000000008 7.0061500000000008 -118.09499999999998 472.50000000000006 3.2254000000000005 1.0000000180025095e-35 1240.5000000000002 36.500000000000007 39.845000000000006 -118.30499999999999 34.175000000000004 -118.37499999999999 34.045000000000009 -117.175 33.925000000000004 720.50000000000011 19.500000000000004 39.500000000000007 2265.5000000000005 -122.38499999999998 38.255000000000003 37.595000000000006 -121.895 1.0000000180025095e-35 38.785000000000004 1118.5000000000002 1227.5000000000002 34.065000000000005
decision_type=2 2 2 2 2 10 2 2 2 2 2 2 2 2 2 2 2 2 2 2 2 2 2 2 2 2 2 2 2 2
left_child=1 2 10 7 5 26 -3 9 -7 25 11 12 13 -1 16 -9 -15 -10 -19 -5 -20 22 -14 24 -23 -2 27 -4 -11 -13
right_child=3 6 4 19 -6 8 -8 15 17 28 -12 29 21 14 -16 -17 -18 18 20 -21 -22 23 -24 -25 -26 -27 -28 -29 -30 -31
leaf_value=6330.5485180664073 2388.6407685476861 -2867.6972914587604 1437.3801616402206 -3575.5508661684785 -190.99867471291566 5934.0971362449436 -1277.6577467332791 6372.7844337928591 985.43266486253196 13.005882947198277 -5186.674046842717 -1572.3472965873677 3941.440938323678 4880.8792032095107 4966.1147081495174 -1555.8675674036931 -2945.3964172068427 1061.6326362936838 7535.3058505766576 5744.2065110546873 2761.1024642476277 3612.7952138154064 -1271.3617917437887 -2208.5961135971211 -661.37525577400015 294.41668541373275 -6299.1389097152223 -924.72656363166084 5651.7934520036752 507.50983055409608
leaf_weight=145 1762 3801 1503 23 1532 253 2078 328 615 58 121 2336 206 39 143 38 207 210 171 625 163 182 172 642 657 492 31 389 312 414
leaf_count=145 1762 3801 1503 23 1532 253 2078 328 615 58 121 2336 206 39 143 38 207 210 171 625 163 182 172 642 657 492 31 389 312 414
internal_value=0 -728.095 187.375 3204.18 1105.75 1701.44 -2305.68 2725.39 2881.66 2331.46 -661.739 -555.28 253.694 2263.56 747.588 5549.59 -1704.65 2215.34 3605.77 5413.41 5205.38 -323.642 1569.48 -806.829 265.799 1931.52 834.836 951.725 4767.88 -1259.23
internal_weight=0 16010 10131 3638 4867 3335 5879 2990 1412 2624 5264 5143 2393 534 389 366 246 1159 544 648 334 1859 378 1481 839 2254 1923 1892 370 2750
internal_count=19648 16010 10131 3638 4867 3335 5879 2990 1412 2624 5264 5143 2393 534 389 366 246 1159 544 648 334 1859 378 1481 839 2254 1923 1892 370 2750
is_linear=0
shrinkage=0.1


Tree=13
num_leaves=31
num_cat=0
split_feature=7 7 9 9 2 7 2 4 5 2 4 4 5 3 0 5 4 3 1 1 1 0 1 0 5 0 12 2 4 3
split_gain=3.73329e+12 1.26911e+12 1.02551e+12 4.93073e+11 3.13076e+11 3.02436e+11 3.10304e+11 2.84367e+11 2.77986e+11 2.66226e+11 2.5501e+11 2.27643e+11 2.37856e+11 2.13636e+11 2.03426e+11 1.85695e+11 2.34129e+11 1.81927e+11 1.76542e+11 1.55965e+11 5.29813e+11 3.58104e+11 1.93398e+11 1.4885e+11 1.41335e+11 1.3937e+11 1.53638e+11 1.33624e+11 1.54232e+11 1.27576e+11
threshold=3.5471000000000004 5.124950000000001 1.0000000180025095e-35 1.0000000180025095e-35 47.500000000000007 7.6757500000000016 27.500000000000004 455.50000000000006 715.50000000000011 51.500000000000007 244.50000000000003 472.50000000000006 1459.5000000000002 2000.5000000000002 -117.12499999999999 918.50000000000011 286.50000000000006 3490.5000000000005 37.595000000000006 34.715000000000011 36.835000000000008 -117.52499999999999 39.335000000000008 -122.41499999999998 845.50000000000011 -117.18499999999999 1.0000000180025095e-35 20.500000000000004 648.50000000000011 443.50000000000006
decision_type=2 2 2 2 2 2 2 8 2 2 10 8 2 2 2 2 10 2 2 2 2 2 2 2 2 2 2 2 10 2
left_child=2 3 7 4 11 6 25 8 10 14 -1 15 27 24 -9 16 -2 -14 -12 21 -21 -4 -22 -11 -8 26 -3 -13 -29 -7
right_child=1 5 19 -5 -6 29 13 9 -10 23 18 12 17 -15 -16 -17 -18 -19 -20 20 22 -23 -24 -25 -26 -27 -28 28 -30 -31
leaf_value=-1052.4865233750663 -60.885029045675893 1851.5600427889285 1474.8534780136008 -917.37342589944421 3793.968032191277 -1455.1172193444295 3295.9486031816314 213.54997253996612 -1895.0255569555197 7221.1769971692893 3985.4072914525082 988.41714843345801 -596.9283406792814 5323.9829619725551 -2635.1915256761904 -822.82534216738077 2864.069413998805 1868.5566332135882 -632.29681556114792 -4769.8016721680933 -1511.6163400746682 -2572.981972487265 -3800.5305907982106 1682.9860330784575 -1077.3796867540148 -816.71730957031252 4915.8568657713513 3719.763449188471 9744.3500767299101 6243.2355197951911
leaf_weight=611 735 1545 302 1614 400 23 413 2637 1884 74 228 151 474 585 277 1009 436 812 130 985 1776 791 466 141 90 171 183 320 49 336
leaf_count=611 735 1545 302 1614 400 23 413 2637 1884 74 228 151 474 585 277 1009 436 812 130 985 1776 791 466 141 90 171 183 320 49 336
internal_value=0 1447.22 -1312.92 577.012 1126.93 3007.67 2678.07 -465.057 -1187.11 193.305 189.272 859.289 1689.57 4024.63 -57.2467 171.446 1028.17 959.816 2308.59 -2486.98 -2836.67 -1454.55 -1987.37 3589.15 2513.44 1906.58 2176.08 3494.32 4519.78 5750.03
internal_weight=0 9346 10302 6000 4386 3346 2987 5982 2853 3129 969 3986 1806 1088 2914 2180 1171 1286 358 4320 3227 1093 2242 215 503 1899 1728 520 369 359
internal_count=19648 9346 10302 6000 4386 3346 2987 5982 2853 3129 969 3986 1806 1088 2914 2180 1171 1286 358 4320 3227 1093 2242 215 503 1899 1728 520 369 359
is_linear=0
shrinkage=0.1


Tree=14
num_leaves=31
num_cat=0
split_feature=7 9 7 0 4 5 5 4 2 1 6 5 2 6 1 0 1 1 5 5 0 1 4 2 0 6 1 0 5 5
split_gain=3.04136e+12 1.35161e+12 5.05877e+11 4.42707e+11 4.21808e+11 3.81559e+11 3.48267e+11 3.2517e+11 2.99799e+11 3.18643e+11 2.88919e+11 3.62288e+11 2.82139e+11 2.55711e+11 2.2602e+11 8.67589e+11 5.82224e+11 2.27909e+11 1.99649e+11 1.86445e+11 1.85011e+11 2.85049e+11 1.76101e+11 1.74378e+11 1.73017e+11 1.70165e+11 1.69751e+11 1.68647e+11 1.56857e+11 1.53172e+11
threshold=4.5222500000000005 1.0000000180025095e-35 6.1449000000000007 -117.145 418.50000000000006 1127.5000000000002 715.50000000000011 244.50000000000003 26.500000000000004 37.815000000000005 540.50000000000011 1694.5000000000002 36.500000000000007 750.50000000000011 34.205000000000005 -117.99499999999999 36.835000000000008 39.335000000000008 2443.5000000000005 782.50000000000011 -121.91499999999998 37.515000000000008 416.50000000000006 18.500000000000004 -122.02499999999999 286.50000000000006 37.665000000000006 -117.52499999999999 1157.5000000000002 1019.5000000000001
decision_type=2 2 2 2 10 2 2 8 2 2 2 2 2 2 2 2 2 2 2 2 2 2 10 2 2 2 2 2 2 2
left_child=1 3 12 4 6 8 7 -1 -6 19 -7 23 20 -13 15 -3 -16 -18 -15 -10 21 24 -22 -12 -2 -8 -9 -17 -24 -27
right_child=2 14 -4 -5 5 10 25 26 9 -11 11 13 -14 18 16 27 17 -19 -20 -21 22 -23 28 -25 -26 29 -28 -29 -30 -31
leaf_value=-450.42614294433599 8947.0272573186066 8030.9941961550248 3678.7852650155346 -2330.7201285685305 38.52201559332353 -822.68966161607193 -2569.5230092359511 4151.2223910367939 11410.106558912628 -681.62191479492185 68.154733787264135 -1173.4399848069677 3433.657187696916 2994.5242111021325 -4048.7484935137518 435.28013965324573 -1111.4034657434672 -3454.0809495713979 237.14157675479885 4820.49490115141 -288.43929984680545 1133.1725415537048 4796.402823505704 3722.6602969433261 3228.3641034839775 401.87561471589544 310.60017437170882 -2265.9416310619777 1082.1904050653482 -1548.9742289761703
leaf_weight=875 87 102 1447 738 237 1185 724 316 49 100 168 715 611 413 1341 311 2359 504 721 347 1074 478 126 586 135 693 181 900 1165 960
leaf_count=875 87 102 1447 738 237 1185 724 316 49 100 168 715 611 413 1341 311 2359 504 721 347 1074 478 126 586 135 693 181 900 1165 960
internal_value=0 -738.889 2094.94 16.0396 225.46 875.807 -558.807 709.827 2964.22 4362.19 471.687 1060.94 1471.48 307.576 -1971.51 -826.21 -2329.22 -1523.81 1241.37 5635.88 1080.32 2508.4 657.638 2908.39 5469.46 -1291.06 2752.52 -1572.23 1444.69 -731.104
internal_weight=0 14525 5123 9008 8270 4521 3749 1372 733 496 3788 2603 3676 1849 5517 1313 4204 2863 1134 396 3065 700 2365 754 222 2377 497 1211 1291 1653
internal_count=19648 14525 5123 9008 8270 4521 3749 1372 733 496 3788 2603 3676 1849 5517 1313 4204 2863 1134 396 3065 700 2365 754 222 2377 497 1211 1291 1653
is_linear=0
shrinkage=0.1


Tree=15
num_leaves=31
num_cat=0
split_feature=7 7 9 9 0 12 0 1 8 0 1 0 1 0 1 0 1 1 0 1 3 1 7 0 0 1 0 1 1 1
split_gain=2.575e+12 8.34845e+11 6.50937e+11 3.91656e+11 2.67261e+11 2.75334e+11 2.74737e+11 3.51461e+11 2.81132e+11 2.80574e+11 4.93895e+11 3.08624e+11 2.64113e+11 2.46401e+11 2.43184e+11 2.78932e+11 3.35527e+11 2.09932e+11 2.0723e+11 3.57664e+11 1.94632e+11 1.91411e+11 1.88574e+11 1.78685e+11 1.71512e+11 2.16091e+11 3.09667e+11 1.93837e+11 1.51738e+11 1.48806e+11
threshold=3.5471000000000004 5.3250500000000009 1.0000000180025095e-35 1.0000000180025095e-35 -117.16499999999998 1.0000000180025095e-35 -122.40499999999999 37.57500000000001 1.0000000180025095e-35 -118.33499999999999 34.165000000000006 -122.03499999999998 39.405000000000008 -118.30499999999999 34.175000000000004 -118.37499999999999 34.045000000000009 33.925000000000004 -122.02499999999999 37.57500000000001 1671.5000000000002 37.745000000000012 7.8581500000000011 -122.40499999999999 -122.38499999999998 37.595000000000006 -121.87499999999999 38.305000000000007 34.105000000000011 34.605000000000011
decision_type=2 2 2 2 2 2 2 2 2 2 2 2 2 2 2 2 2 2 2 2 2 2 2 2 2 2 2 2 2 2
left_child=2 3 12 4 5 6 8 9 21 10 -8 -12 13 14 15 -1 17 -17 19 -3 -11 -2 -20 -21 27 26 -26 -16 -22 -28
right_child=1 18 -4 -5 -6 -7 7 -9 -10 20 11 -13 -14 -15 24 16 -18 -19 22 23 28 -23 -24 -25 25 -27 29 -29 -30 -31
leaf_value=5525.3392077215794 1244.8739891849348 8460.3002291771681 -2025.7736279015853 -714.11133187268013 -1592.3860190745152 3026.0650092028663 5404.9186128975371 -1919.5478886121386 158.60751203150531 -1434.1226701322767 6434.2854957248855 327.23413901531831 -4572.3126369809142 -923.16055619326517 3212.8001691994095 3992.5105861857792 4469.2263961791996 -2728.1692256492024 1918.2824630653413 5689.1026171135181 484.13967580825505 7629.2680992563828 4873.9672533470566 1101.6694895175326 3280.8812366065695 -1900.9239701870929 589.77913385575198 -1102.4438779518821 4152.4940294265753 -2320.7159644863959
leaf_weight=174 67 155 4320 1724 356 733 340 470 153 521 92 823 149 3080 282 59 158 219 2069 132 947 157 241 238 268 717 394 165 128 317
leaf_count=174 67 155 4320 1724 356 733 340 470 153 521 92 823 149 3080 282 59 158 219 2069 132 947 157 241 238 268 717 394 165 128 317
internal_value=0 1201.92 -1090.39 578.272 1043.71 1255.51 904.555 614.145 3462.78 1031.84 2150.55 941.276 -414.886 -308.687 378.773 2140.39 789.511 -1301.84 2634.24 4427.63 152.144 5719.65 2226.65 2738.27 -122.666 -581.946 384.047 1619.92 920.93 -707.868
internal_weight=0 9346 10302 6511 4787 4431 3698 3321 377 2851 1255 915 5982 5833 2753 610 436 278 2835 525 1596 224 2310 370 2143 1696 979 447 1075 711
internal_count=19648 9346 10302 6511 4787 4431 3698 3321 377 2851 1255 915 5982 5833 2753 610 436 278 2835 525 1596 224 2310 370 2143 1696 979 447 1075 711
is_linear=0
shrinkage=0.1


Tree=16
num_leaves=31
num_cat=0
split_feature=7 7 9 9 0 12 0 1 0 8 1 0 12 1 1 6 2 7 1 0 0 0 1 6 3 5 0 5 2 4
split_gain=2.08575e+12 6.9524e+11 5.27259e+11 3.52481e+11 2.39481e+11 2.50836e+11 2.37403e+11 3.16043e+11 2.91111e+11 2.56834e+11 2.15773e+11 2.07611e+11 2.87741e+11 1.80803e+11 1.78672e+11 1.78628e+11 2.23846e+11 1.74635e+11 1.66696e+11 1.89852e+11 1.69436e+11 1.69104e+11 2.17174e+11 1.60998e+11 1.47826e+11 2.17642e+11 1.57833e+11 1.4424e+11 1.35382e+11 1.30155e+11
threshold=3.5471000000000004 5.6919500000000012 1.0000000180025095e-35 1.0000000180025095e-35 -117.16499999999998 1.0000000180025095e-35 -122.40499999999999 37.57500000000001 -122.03499999999998 1.0000000180025095e-35 39.845000000000006 -117.145 1.0000000180025095e-35 34.005000000000003 37.745000000000012 39.500000000000007 26.500000000000004 9.1381500000000013 33.885000000000012 -118.36499999999999 -118.22499999999998 -117.73499999999999 33.695000000000007 486.50000000000006 1671.5000000000002 707.50000000000011 -118.34499999999998 918.50000000000011 17.500000000000004 585.50000000000011
decision_type=2 2 2 2 2 2 2 2 2 2 2 2 2 2 2 2 2 2 2 2 2 2 2 2 2 2 2 2 2 8
left_child=2 3 10 4 5 6 9 8 -8 14 11 12 13 18 -2 -3 17 29 21 -20 -21 22 -1 -15 25 26 -10 -26 -7 -17
right_child=1 15 -4 -5 -6 28 7 -9 24 -11 -12 -13 -14 23 -16 16 -18 -19 19 20 -22 -23 -24 -25 27 -27 -28 -29 -30 -31
leaf_value=6947.8581848144531 1118.6753593549336 -4301.6609863281255 -1823.1962714964955 -567.74824634439506 -1352.1607433114734 196.15334527015688 6147.5646385121572 -1635.4070623093969 3484.2453172156561 135.12905174813622 -4387.1925298559754 -2182.797354607364 1707.7033619837903 -581.78785134436373 7033.5414499798953 1142.4056463813347 4286.6166957330151 8000.04372736613 4058.2896214911279 -3700.7267993076694 -894.0651276291037 -3694.4392046379321 86.796325735824325 878.44589095906758 3647.7749341972908 -1667.1796329802532 -260.77880330325092 1014.8735885406828 3436.0881882030444 3214.6667033703161
leaf_weight=52 73 36 4320 1865 392 160 107 521 199 164 131 524 758 1775 170 874 682 48 47 489 384 99 409 1314 233 489 259 1945 665 464
leaf_count=52 73 36 4320 1865 392 160 107 521 199 164 131 524 758 1775 170 874 682 48 47 489 384 99 409 1314 233 489 259 1945 665 464
internal_value=0 1081.73 -981.35 616.844 1027.72 1214.86 898.967 650.193 1018.63 3192.94 -373.397 -283.531 -96.7063 -396.059 5256.65 2681.88 2803.45 2073.64 -1304.86 -2132.87 -2466.18 55.4265 860.712 39.3669 843.019 -200.029 1366.43 1296.54 2807.74 1861.04
internal_weight=0 9346 10302 7242 5377 4985 4160 3753 3232 407 5982 5851 5327 4569 243 2104 2068 1386 1480 920 873 560 461 3089 3125 947 458 2178 825 1338
internal_count=19648 9346 10302 7242 5377 4985 4160 3753 3232 407 5982 5851 5327 4569 243 2104 2068 1386 1480 920 873 560 461 3089 3125 947 458 2178 825 1338
is_linear=0
shrinkage=0.1


Tree=17
num_leaves=31
num_cat=0
split_feature=7 9 7 2 1 0 1 9 0 12 1 1 2 7 4 5 12 0 5 6 5 2 4 1 0 0 1 6 0 1
split_gain=1.70463e+12 7.9944e+11 3.28699e+11 2.71515e+11 2.12357e+11 8.30458e+11 6.06872e+11 2.09381e+11 1.89211e+11 2.77928e+11 2.25026e+11 1.85106e+11 1.71117e+11 1.63355e+11 1.56682e+11 1.58359e+11 1.39399e+11 1.38592e+11 1.23234e+11 1.8792e+11 1.78479e+11 1.38089e+11 1.25189e+11 1.23039e+11 1.21767e+11 1.17999e+11 1.37695e+11 1.1622e+11 1.13684e+11 1.8705e+11
threshold=5.0324000000000009 1.0000000180025095e-35 2.1201000000000003 50.500000000000007 34.665000000000006 -117.81499999999998 36.835000000000008 1.0000000180025095e-35 -117.12499999999999 1.0000000180025095e-35 40.585000000000008 39.335000000000008 18.500000000000004 6.8725500000000013 354.50000000000006 687.50000000000011 1.0000000180025095e-35 -116.22499999999998 1308.5000000000002 731.50000000000011 2857.5000000000005 23.500000000000004 913.50000000000011 37.645000000000003 -117.15499999999999 -122.41499999999998 37.715000000000011 1189.5000000000002 -118.01499999999999 34.525000000000013
decision_type=2 2 2 2 2 2 2 2 2 2 2 2 2 2 10 2 2 2 2 2 2 2 10 2 2 2 2 2 2 2
left_child=1 2 27 8 5 28 -6 13 9 14 12 -8 -11 16 15 -4 -2 -7 23 -20 21 -21 -23 -16 -18 -5 -27 -1 29 -3
right_child=7 4 3 25 6 17 11 -9 -10 10 -12 -13 -14 -15 18 -17 24 -19 19 20 -22 22 -24 -25 -26 26 -28 -29 -30 -31
leaf_value=-1440.3515772519524 1612.341714188934 9079.9990198116484 449.42757894430952 4300.6772120666501 -3614.8454396553352 -971.82089380814944 -631.71782404521377 318.21851632372932 -1600.9403349285228 -533.12718515437405 -4204.0749717106901 -2720.1273639873434 2483.8037614569334 3770.6056175018261 1755.5064834596699 -1340.9069169052143 4350.0730384355711 -4015.5901093064695 -680.81764152418737 573.20920750687765 -567.61210660275231 1563.9289067527463 5402.2478039633024 -482.98828651520984 -1940.5675590963926 3040.6964410726919 -404.43610348916269 4163.4083589453448 2578.5698295637012 504.76802839391377
leaf_weight=1421 2029 101 785 200 1230 1195 2529 644 563 231 63 510 1010 607 968 1333 324 171 1623 328 434 173 167 329 34 243 222 38 109 34
leaf_count=1421 2029 101 785 200 1230 1195 2529 644 563 231 63 510 1010 607 968 1333 324 171 1623 328 434 173 167 329 34 243 222 38 109 34
internal_value=0 -444.008 94.2897 327.927 -1371.63 -392.973 -1740.72 1953.98 166.672 300.358 1626.25 -982.191 1922.23 2305.83 18.7681 -677.35 1933.34 -1352.85 385.347 3.46313 1011.26 2037.05 3449.22 1187.68 3752.64 2269.53 1395.92 -1294.4 4980.76 6920.31
internal_weight=0 16010 10131 8672 5879 1610 4269 3638 8007 7444 1304 3039 1241 2994 6140 2118 2387 1366 4022 2725 1102 668 340 1297 358 665 465 1459 244 135
internal_count=19648 16010 10131 8672 5879 1610 4269 3638 8007 7444 1304 3039 1241 2994 6140 2118 2387 1366 4022 2725 1102 668 340 1297 358 665 465 1459 244 135
is_linear=0
shrinkage=0.1


Tree=18
num_leaves=31
num_cat=0
split_feature=7 7 9 2 1 1 1 0 2 3 0 0 1 4 2 5 4 1 0 7 5 6 2 7 1 5 1 11 12 1
split_gain=1.4363e+12 5.05171e+11 2.79585e+11 2.33249e+11 2.36298e+11 2.03971e+11 1.78261e+11 2.3171e+11 1.74478e+11 1.99462e+11 1.77547e+11 1.67642e+11 2.16378e+11 1.42124e+11 1.58861e+11 1.48775e+11 1.39669e+11 1.38053e+11 2.32252e+11 1.32892e+11 1.31469e+11 1.61725e+11 1.26722e+11 1.15988e+11 1.15571e+11 1.14888e+11 1.11296e+11 1.0563e+11 1.05387e+11 1.21599e+11
threshold=3.3840000000000008 5.0779500000000004 1.0000000180025095e-35 38.500000000000007 33.775000000000013 33.995000000000012 37.635000000000012 -122.40499999999999 16.500000000000004 1227.5000000000002 -117.175 -117.52499999999999 33.695000000000007 644.50000000000011 19.500000000000004 1341.5000000000002 393.50000000000006 37.925000000000004 -122.30499999999999 6.3714000000000004 2313.5000000000005 842.50000000000011 36.500000000000007 8.4353500000000015 37.735000000000007 1718.5000000000002 32.725000000000001 1.0000000180025095e-35 1.0000000180025095e-35 34.005000000000003
decision_type=2 2 2 2 2 2 2 2 2 2 2 2 2 10 2 2 8 2 2 2 2 2 2 2 2 2 2 2 2 2
left_child=2 3 17 11 -5 -6 -7 24 23 -10 19 12 -2 15 -15 16 -14 18 -1 22 21 25 -11 -3 -8 -16 -20 -26 29 -28
right_child=1 8 -4 4 5 6 7 -9 9 10 -12 -13 13 14 20 -17 -18 -19 26 -21 -22 -23 -24 -25 27 -27 28 -29 -30 -31
leaf_value=2806.0278876870366 4058.4425602325023 477.42405229990027 -1509.8041694158755 7452.7449073791504 -1529.2713620561281 3171.0169318968251 -1084.427801244399 -1853.9977486660607 -250.58416911101085 1771.8046222856681 -2145.5354261699476 -1252.2140189392621 -312.98185556392951 -88.975542823409427 4721.5788189115128 -1394.53787437286 1396.7249614507093 -2005.2482120767718 -2558.857179873271 3989.3838422738827 478.82198413776905 7652.3981465657553 4108.7800911710028 4804.4880430279363 252.32237027075985 675.33384026070325 -1226.5770163070636 5215.8194997883529 786.77789008419256 -60.395005586607127
leaf_weight=236 146 1009 4060 64 221 496 68 228 277 1145 76 860 1624 619 120 798 677 496 229 628 265 72 291 66 62 169 1464 139 746 2297
leaf_count=236 146 1009 4060 64 221 496 68 228 277 1145 76 860 1624 619 120 798 677 496 229 628 265 72 291 66 62 169 1464 139 746 2297
internal_value=0 829.611 -881.157 316.78 1530.53 1218.32 1829.82 491.329 1802.99 2274.4 2601.24 26.8398 271.826 144.559 1046.99 -217.987 190.048 -414.385 -255.683 2776.02 2170.26 3411.89 2245.38 743.086 2479.19 2355.44 -408.251 3684.79 -298.979 -514.341
internal_weight=0 10120 9528 6628 1278 1214 993 497 3492 2417 2140 5350 4490 4344 1245 3099 2301 5468 4972 2064 626 361 1436 1075 269 289 4736 201 4507 3761
internal_count=19648 10120 9528 6628 1278 1214 993 497 3492 2417 2140 5350 4490 4344 1245 3099 2301 5468 4972 2064 626 361 1436 1075 269 289 4736 201 4507 3761
is_linear=0
shrinkage=0.1


Tree=19
num_leaves=31
num_cat=0
split_feature=7 9 7 2 4 5 4 5 1 0 11 5 3 4 12 0 12 0 6 5 6 2 1 1 0 1 3 3 2 0
split_gain=1.18147e+12 3.36229e+11 3.23466e+11 1.94029e+11 2.2653e+11 3.22823e+11 2.0213e+11 1.80946e+11 1.76805e+11 1.84618e+11 1.6729e+11 1.54572e+11 1.91538e+11 1.51411e+11 1.47018e+11 1.44964e+11 2.18127e+11 1.38349e+11 1.31898e+11 1.23927e+11 1.21325e+11 1.15089e+11 1.08949e+11 3.37212e+11 2.78256e+11 1.18647e+11 1.06989e+11 1.00627e+11 1.41492e+11 9.29831e+10
threshold=3.8253500000000007 1.0000000180025095e-35 5.8446500000000006 17.500000000000004 393.50000000000006 1169.5000000000002 511.50000000000006 1704.5000000000002 38.785000000000004 -122.41499999999998 1.0000000180025095e-35 887.50000000000011 1214.5000000000002 822.50000000000011 1.0000000180025095e-35 -117.145 1.0000000180025095e-35 -117.70499999999998 715.50000000000011 2292.5000000000005 731.50000000000011 25.500000000000004 34.715000000000011 36.835000000000008 -117.77499999999999 39.335000000000008 3459.5000000000005 1133.5000000000002 26.500000000000004 -122.09499999999998
decision_type=2 2 2 2 8 2 8 2 2 2 2 2 2 8 2 2 2 2 2 2 2 2 2 2 2 2 2 2 2 2
left_child=1 8 3 26 11 -6 -7 18 9 10 -1 12 -5 -9 17 16 20 27 -8 -15 29 -12 24 -24 -3 -25 -2 -4 -29 -11
right_child=2 22 14 4 5 6 7 13 -10 15 21 -13 -14 19 -16 -17 -18 -19 -20 -21 -22 -23 23 25 -26 -27 -28 28 -30 -31
leaf_value=150.23645205146823 -1042.617278713559 3215.8227319139755 -414.82477884779883 -691.32319987968333 3927.1102285420529 -675.78051127896458 2669.9865918227915 -635.23115611259288 -3059.7649558035382 -1615.0674388159669 -2586.211418845437 -951.75337877124355 1748.7915107184003 5330.1989737328067 4694.0217928620959 -1731.5456355445076 1435.2962978480921 -389.17243765099465 8298.3051587975551 1097.7379258512542 733.75473630201645 5124.9134946076774 -3073.8951880687291 -588.94118934500057 -1087.4275060212174 -2330.9558242656858 553.17883547169913 1670.9510685142277 3854.8585580056179 -347.79412946923071
leaf_weight=231 929 175 137 515 485 505 439 391 209 699 22 751 857 94 194 591 809 249 46 262 873 161 1047 1983 1063 487 767 849 456 3372
leaf_count=231 929 175 137 515 485 505 439 391 209 699 22 751 857 94 194 591 809 249 46 262 873 161 1047 1983 1063 487 767 849 456 3372
internal_value=0 -637.644 943.031 586.179 940.256 1646.04 1009.12 1699.77 -195.19 -106.599 1939.42 201.562 832.859 723.254 2086.66 -240.119 -86.9062 1787.53 3203.81 2215.3 -335.988 4197.89 -1285.93 -1569.92 -479.133 -932.407 -320.934 2163.4 2434.06 -565.388
internal_weight=0 11722 7926 6041 4345 2222 1737 1232 6967 6758 414 2123 1372 747 1885 6344 5753 1691 485 356 4944 183 4755 3517 1238 2470 1696 1442 1305 4071
internal_count=19648 11722 7926 6041 4345 2222 1737 1232 6967 6758 414 2123 1372 747 1885 6344 5753 1691 485 356 4944 183 4755 3517 1238 2470 1696 1442 1305 4071
is_linear=0
shrinkage=0.1


Tree=20
num_leaves=31
num_cat=0
split_feature=7 9 7 2 12 7 4 2 0 1 0 1 0 4 5 5 2 4 4 4 1 4 5 4 2 2 6 2 5 5
split_gain=9.64959e+11 4.16907e+11 2.02943e+11 1.73479e+11 1.61601e+11 1.77094e+11 1.44611e+11 1.61563e+11 1.3759e+11 1.32235e+11 5.43353e+11 3.31573e+11 1.39373e+11 1.25269e+11 2.05633e+11 2.04459e+11 1.68104e+11 1.68076e+11 1.3535e+11 1.16148e+11 1.147e+11 1.10876e+11 2.09436e+11 1.63675e+11 1.18472e+11 1.10506e+11 1.0777e+11 1.06731e+11 9.96807e+10 9.83399e+10
threshold=4.7003500000000011 1.0000000180025095e-35 2.1201000000000003 50.500000000000007 1.0000000180025095e-35 7.6757500000000016 349.50000000000006 26.500000000000004 -117.12499999999999 34.195000000000007 -118.01499999999999 36.835000000000008 -117.52499999999999 347.50000000000006 880.50000000000011 641.50000000000011 26.500000000000004 403.50000000000006 270.50000000000006 139.50000000000003 39.335000000000008 511.50000000000006 1704.5000000000002 862.50000000000011 17.500000000000004 24.500000000000004 642.50000000000011 23.500000000000004 1387.5000000000002 887.50000000000011
decision_type=2 2 2 2 2 2 10 2 2 2 2 2 2 8 2 2 2 10 10 8 2 8 2 8 2 2 2 2 2 2
left_child=1 2 -1 13 5 6 29 -8 19 10 -3 -11 -12 15 16 18 -15 -18 -4 -6 27 28 24 -24 -23 -25 -26 -13 -16 -2
right_child=4 9 3 -5 8 -7 7 -9 -10 11 12 20 -14 14 21 -17 17 -19 -20 -21 -22 22 23 25 26 -27 -28 -29 -30 -31
leaf_value=-1061.7364019288032 561.72976546207985 7960.2302237374452 165.96563351872803 1805.2488873877614 -3546.9126494034481 3272.0538892171471 764.11578680761841 2565.8824973768405 -2269.3526413288523 -2609.525744628354 1003.1901239052797 216.03684422049815 -1340.0164997504608 122.47182232084729 13.70815735886611 -1266.3707714063301 1933.3031189427231 7368.4250845031747 3716.0951346397401 3730.4274284160747 -2097.2280651400411 -287.71987229219843 -1093.3274509542975 -29.763090143115161 1436.6987194342742 2164.4800428969138 3869.5619930781149 -1109.7162202389352 -1705.0435341046521 -1345.4516537459001
leaf_weight=1459 1019 77 667 636 23 332 1524 739 47 1381 351 1218 917 168 1109 1416 132 100 128 472 508 277 928 646 709 356 245 1211 485 368
leaf_count=1459 1019 77 667 636 23 332 1524 739 47 1381 351 1218 917 168 1109 1416 132 100 128 472 508 277 928 646 709 356 245 1211 485 368
internal_value=0 -383.286 22.9148 220.679 1281.35 1060.85 859.719 1352.5 2901.33 -1061.91 -196.087 -1331.61 -691.384 83.8626 353.939 -545.826 2531.53 4276.03 737.559 3392.29 -730.72 170.755 513.661 -136.414 1532.87 749.828 2061.49 -444.929 -509.25 55.7148
internal_weight=0 15124 9461 8002 4524 3982 3650 2263 542 5663 1345 4318 1268 7366 5155 2211 400 232 795 495 2937 4755 3161 1930 1231 1002 954 2429 1594 1387
internal_count=19648 15124 9461 8002 4524 3982 3650 2263 542 5663 1345 4318 1268 7366 5155 2211 400 232 795 495 2937 4755 3161 1930 1231 1002 954 2429 1594 1387
is_linear=0
shrinkage=0.1


Tree=21
num_leaves=31
num_cat=0
split_feature=7 9 3 5 3 5 3 7 0 1 0 0 1 7 0 1 1 0 1 1 0 1 1 0 1 5 4 5 0 6
split_gain=8.16371e+11 3.40245e+11 2.47142e+11 2.69207e+11 2.76851e+11 2.48259e+11 2.78623e+11 1.77205e+11 1.56053e+11 1.46941e+11 6.17055e+11 6.07834e+11 1.56739e+11 1.28789e+11 1.27585e+11 1.15003e+11 1.87333e+11 1.67012e+11 1.21865e+11 1.14235e+11 3.7153e+11 1.11696e+11 1.11364e+11 1.41234e+11 1.60242e+11 1.37219e+11 1.26537e+11 1.39107e+11 1.07071e+11 9.61348e+10
threshold=3.3840000000000008 1.0000000180025095e-35 2022.5000000000002 788.50000000000011 1227.5000000000002 1182.5000000000002 2621.5000000000005 1.9481000000000002 -118.33499999999999 34.665000000000006 -118.00499999999998 -119.94499999999998 34.195000000000007 6.8725500000000013 -117.47499999999998 34.455000000000005 36.805000000000007 -119.30499999999999 39.335000000000008 37.965000000000011 -121.25499999999998 34.155000000000008 37.975000000000001 -122.11499999999999 37.615000000000002 1494.5000000000002 862.50000000000011 2470.5000000000005 -122.35499999999998 1189.5000000000002
decision_type=2 2 2 2 2 2 2 2 2 2 2 2 2 2 2 2 2 2 2 2 2 2 2 2 2 2 10 2 2 2
left_child=7 2 3 4 8 -4 -7 29 21 10 12 19 -3 22 -12 17 -17 -9 -18 20 -11 -2 23 24 -8 -25 -27 -28 -24 -1
right_child=1 9 5 -5 -6 6 13 15 -10 11 14 -13 -14 -15 -16 16 18 -19 -20 -21 -22 -23 28 25 -26 26 27 -29 -30 -31
leaf_value=-1545.0106374412558 4049.0087356892036 8476.6296592856361 2728.2507759689961 -759.73035477764415 2401.0519461424155 -1009.0456211023629 6916.3735670823362 5200.9259241392219 -1867.0880284083976 5575.1258640586911 839.9334959452367 -4451.6759701546098 1936.3174461364747 3389.212139115969 -1855.2281066418932 -2113.6939725381849 -150.05282005765307 -118.62880274591994 -2027.4810987646788 -442.88961019399562 -1367.8063059773167 205.01407376422787 912.70329157049002 2646.2403196808468 1830.2201803305716 -27.243577531122863 3979.1795368700609 831.55386568628182 -3844.7954892813441 2889.9353828735429
leaf_weight=2176 94 106 1099 1406 836 574 91 60 330 141 323 381 56 293 385 861 2363 3613 405 901 170 386 110 447 194 1023 196 495 83 50
leaf_count=2176 94 106 1099 1406 836 574 91 60 330 141 323 381 56 293 385 861 2363 3613 405 901 170 386 110 447 194 1023 196 495 83 50
internal_value=0 625.454 954.312 256.455 1124.47 1416.82 1005.74 -664.315 -193.082 -396.904 648.267 -967.713 6215.78 1400.17 -625.656 -426.205 -825.46 -31.7316 -424.749 127.494 1779.95 957.796 1179.34 1361.81 3454.22 1085.86 678.92 1724.37 -1133.27 -1445.39
internal_weight=0 10120 7657 3052 1646 4605 3506 9528 810 2463 870 1593 162 2932 708 7302 3629 3673 2768 1212 311 480 2639 2446 285 2161 1714 691 193 2226
internal_count=19648 10120 7657 3052 1646 4605 3506 9528 810 2463 870 1593 162 2932 708 7302 3629 3673 2768 1212 311 480 2639 2446 285 2161 1714 691 193 2226
is_linear=0
shrinkage=0.1


Tree=22
num_leaves=31
num_cat=0
split_feature=7 7 3 5 2 3 0 12 0 1 1 0 0 1 0 0 1 0 12 0 1 3 7 8 1 0 0 1 0 1
split_gain=6.61547e+11 1.96719e+11 1.91259e+11 2.01729e+11 1.88266e+11 1.78577e+11 1.69415e+11 1.60223e+11 1.77669e+11 1.51843e+11 1.38312e+11 1.3366e+11 1.31326e+11 1.57644e+11 2.24239e+11 1.8399e+11 2.29381e+11 1.90782e+11 1.77132e+11 1.27982e+11 1.17125e+11 1.06786e+11 1.0431e+11 1.00119e+11 9.86535e+10 1.98171e+11 1.18302e+11 1.7518e+11 9.69992e+10 9.8077e+10
threshold=3.9229000000000003 2.1032500000000005 1633.5000000000002 679.50000000000011 16.500000000000004 1185.5000000000002 -117.22499999999998 1.0000000180025095e-35 -122.425 37.905000000000008 39.405000000000008 -117.63499999999998 -122.35499999999998 34.525000000000013 -120.645 -118.34499999999998 34.155000000000008 -119.34499999999998 1.0000000180025095e-35 -122.62499999999999 33.785000000000004 3459.5000000000005 7.6757500000000016 1.0000000180025095e-35 34.095000000000006 -117.57499999999997 -118.16499999999998 33.745000000000012 -118.41499999999998 34.055000000000007
decision_type=2 2 2 2 2 2 2 2 2 2 2 2 2 2 2 2 2 2 2 2 2 2 2 2 2 2 2 2 2 2
left_child=1 -1 3 5 21 -2 7 8 23 11 12 22 19 15 18 16 28 -18 -15 -3 -9 -4 -10 -6 26 -26 27 -17 -14 -30
right_child=2 10 4 -5 6 -7 -8 20 9 -11 -12 -13 13 14 -16 24 17 -19 -20 -21 -22 -23 -24 -25 25 -27 -28 -29 29 -31
leaf_value=-1184.0726999209323 -298.84974619224243 -644.21750860344878 -697.53911575998927 -1562.0927063079453 5353.0999138304906 2359.3849449998552 -1245.6622275858342 6278.5194973216339 1346.6025072844309 -858.28040487950716 -2072.4427454617557 -2391.1690577631412 5845.8056537130615 -476.1183149387673 -1976.2742391816439 6867.4434257812509 4975.3398989470115 -695.61732704397082 2800.5768588805468 2393.82340764848 2446.6877697480832 864.37489574010294 4305.8184882629394 800.23266300809564 2116.7037164094995 -1774.9917218182538 -26.518539839609232 -1625.6680383471321 954.192774166851 5670.820080166176
leaf_weight=2854 708 219 806 659 161 393 230 102 2531 349 392 92 115 2255 1065 25 69 423 178 378 366 958 125 69 447 185 2424 850 159 61
leaf_count=2854 708 219 806 659 161 393 230 102 2531 349 392 92 115 2255 1065 25 69 423 178 378 366 958 125 69 447 185 2424 850 159 61
internal_value=0 -458.344 734.6 -178.276 1012.14 650.002 1389.67 1549.38 1305.69 1106.54 -234.306 1356.07 -152.915 -256.485 -766.117 118.188 1473.95 99.6998 -236.393 1279.37 3281.83 150.711 1485.87 3987.24 -167.036 977.521 -386.303 -1383.01 3492.25 2261.98
internal_weight=0 12099 7549 1760 5789 1101 4025 3795 3327 3097 9245 2748 8853 8256 3498 4758 827 492 2433 597 468 1764 2656 230 3931 632 3299 875 335 220
internal_count=19648 12099 7549 1760 5789 1101 4025 3795 3327 3097 9245 2748 8853 8256 3498 4758 827 492 2433 597 468 1764 2656 230 3931 632 3299 875 335 220
is_linear=0
shrinkage=0.1


Tree=23
num_leaves=31
num_cat=0
split_feature=7 9 1 0 0 12 1 1 0 1 0 1 1 1 0 1 2 1 0 0 1 1 0 0 3 2 0 1 7 4
split_gain=5.63211e+11 2.36375e+11 1.65135e+11 2.96839e+11 1.51751e+11 1.78069e+11 1.36557e+11 1.44012e+11 1.27735e+11 4.32937e+11 3.34459e+11 3.132e+11 3.1823e+11 1.53416e+11 2.50491e+11 1.17326e+11 1.8963e+11 1.56968e+11 2.19997e+11 1.86881e+11 1.16148e+11 1.83016e+11 2.76637e+11 1.10938e+11 1.06002e+11 1.24817e+11 1.19584e+11 2.67887e+11 1.18398e+11 1.07392e+11
threshold=5.0779500000000004 1.0000000180025095e-35 37.905000000000008 -122.30499999999999 -117.15499999999999 1.0000000180025095e-35 37.765000000000008 37.615000000000002 -118.30499999999999 34.175000000000004 -118.37499999999999 34.045000000000009 33.895000000000003 34.055000000000007 -118.16499999999998 33.775000000000013 36.500000000000007 35.125000000000007 -120.41499999999998 -119.34499999999998 37.855000000000011 37.57500000000001 -121.87499999999999 -122.27499999999999 404.50000000000006 36.500000000000007 -122.02499999999999 37.57500000000001 9.1381500000000013 578.50000000000011
decision_type=2 2 2 2 2 2 2 2 2 2 2 2 2 2 2 2 2 2 2 2 2 2 2 2 2 2 2 2 2 10
left_child=1 2 3 6 5 8 7 -1 9 10 -5 12 -12 14 -10 16 -7 18 -17 -20 21 22 -11 -22 -2 26 27 -26 29 -28
right_child=24 -3 -4 4 -6 15 -8 -9 13 20 11 -13 -14 -15 -16 17 -18 -19 19 -21 23 -23 -24 -25 25 -27 28 -29 -30 -31
leaf_value=5462.3953820633569 -2848.9381497896634 -752.54918811362404 -1238.1293759493528 4671.3314948435082 -1251.5227381562627 1344.2879466723846 4773.3445996243527 610.84848690335718 -2117.0707059355577 2187.710837504761 4326.0179858149313 3934.3506828835484 -2131.2703081446107 754.9275858046858 -102.82177150467228 -7448.3547851562507 5957.6558020528164 2365.5725303272784 4374.5246657151447 -1155.9439000664029 -219.99640513828822 -1928.5164437444587 -799.80535679467005 6226.9216595818016 5907.9607453998769 2762.1300082603575 176.2302690046366 749.1189438275843 5539.4267121582034 1595.5349523424338
leaf_weight=73 65 5910 918 343 850 346 163 378 960 441 98 217 345 801 1730 44 120 263 78 282 56 646 1043 51 152 459 1689 298 50 779
leaf_count=73 65 5910 918 343 850 346 163 378 960 441 98 217 345 801 1730 44 120 263 78 282 56 646 1043 51 152 459 1689 298 50 779
internal_value=0 -248.912 41.5904 167.532 17.7906 154.988 2292.69 1396.13 -40.2429 411.944 2138.27 821.842 -702.796 -459.918 -821.662 1314.83 2532.28 464.25 -773.492 42.3243 -362.085 -523.586 87.9943 2852.83 1151.61 1227.49 990.16 2491.66 721.821 624.22
internal_weight=0 16156 10246 9328 8714 7864 614 451 6731 3240 1003 660 443 3491 2690 1133 466 667 404 360 2237 2130 1484 107 3492 3427 2968 450 2518 2468
internal_count=19648 16156 10246 9328 8714 7864 614 451 6731 3240 1003 660 443 3491 2690 1133 466 667 404 360 2237 2130 1484 107 3492 3427 2968 450 2518 2468
is_linear=0
shrinkage=0.1


Tree=24
num_leaves=31
num_cat=0
split_feature=7 7 2 4 5 5 4 4 5 5 9 0 1 3 0 6 1 2 5 6 3 0 1 7 1 0 0 1 1 1
split_gain=4.56201e+11 2.0402e+11 1.41056e+11 1.25356e+11 1.8145e+11 1.61324e+11 1.40243e+11 1.18267e+11 1.19926e+11 1.1412e+11 9.7953e+10 1.047e+11 3.67387e+11 1.46497e+11 1.07252e+11 9.12138e+10 8.65567e+10 8.49223e+10 7.96178e+10 1.00928e+11 8.28979e+10 8.90894e+10 7.73621e+10 7.77178e+10 7.48626e+10 1.86053e+11 1.3303e+11 1.2384e+11 9.81133e+10 7.41105e+10
threshold=5.0779500000000004 2.1032500000000005 50.500000000000007 520.50000000000011 1729.5000000000002 1152.5000000000002 862.50000000000011 354.50000000000006 650.50000000000011 2963.0000000000005 1.0000000180025095e-35 -118.34499999999998 34.155000000000008 1465.5000000000002 -119.21499999999999 249.50000000000003 34.605000000000011 36.500000000000007 282.50000000000006 527.50000000000011 1858.5000000000002 -118.30499999999999 34.095000000000006 9.1381500000000013 37.57500000000001 -122.02499999999999 -122.40499999999999 37.155000000000008 37.935000000000009 34.195000000000007
decision_type=2 2 2 8 2 2 8 10 2 2 2 2 2 2 2 2 2 2 2 2 2 2 2 2 2 2 2 2 2 2
left_child=1 18 3 5 -5 7 -6 8 15 17 11 12 -2 -13 24 -3 -9 -8 -1 -20 21 -21 23 -15 25 -14 -26 -27 -28 -12
right_child=10 2 -4 4 6 -7 9 16 -10 -11 29 13 14 22 -16 -17 -18 -19 19 20 -22 -23 -24 -25 26 27 28 -29 -30 -31
leaf_value=986.52943786621097 5943.8532547157693 -54.671779963271653 1246.2197178541619 971.04721158470329 -961.5688289994622 -1164.7473276028556 930.68537343479829 1394.7904490256119 -915.93135839879346 -485.52746780705456 1434.1764764745258 -2133.4048311839388 5043.4263465640424 624.14950106263768 -442.46683134353452 2228.0765383006342 -102.61947199532391 5299.1154013775767 -1512.5595899344976 8541.3721063523062 -493.53500136550002 865.33232428939255 3957.3096876029508 5710.1454952116937 3143.3792911812111 4024.5287188420534 591.23450491685139 288.05339196307841 -3452.5536385560649 -893.5892379835725
leaf_weight=190 190 1454 779 2038 1451 2029 837 746 2122 800 206 170 190 975 293 199 800 47 1928 21 661 54 83 31 162 122 260 325 78 407
leaf_count=190 190 1454 779 2038 1451 2029 837 746 2122 800 206 170 190 975 293 199 800 47 1928 21 661 54 83 31 162 122 260 325 78 407
internal_value=0 -224.021 -59.4184 -140.636 236.493 -406.063 -241.026 -116.763 -418.467 379.822 1036.45 1280.84 1812.47 596.774 1263.54 220.142 619.934 1162.94 -991.207 -1132.26 -136.046 3014.62 1022.97 780.875 1703.18 2422.07 787.298 1307.85 -341.947 -111.338
internal_weight=0 16156 13302 12523 5173 7350 3135 5321 3775 1684 3492 2879 1620 1259 1430 1653 1546 884 2854 2664 736 75 1089 1006 1137 637 500 447 338 613
internal_count=19648 16156 13302 12523 5173 7350 3135 5321 3775 1684 3492 2879 1620 1259 1430 1653 1546 884 2854 2664 736 75 1089 1006 1137 637 500 447 338 613
is_linear=0
shrinkage=0.1


Tree=25
num_leaves=31
num_cat=0
split_feature=7 0 1 0 1 9 8 0 0 1 1 0 1 1 1 2 0 1 0 0 3 1 1 0 1 1 0 1 0 1
split_gain=3.96717e+11 1.67847e+11 1.75026e+11 1.80787e+11 7.70431e+11 2.2029e+11 2.08582e+11 2.33149e+11 2.00528e+11 1.58499e+11 1.5718e+11 3.02971e+11 3.76613e+11 1.74258e+11 1.87346e+11 2.27729e+11 1.13995e+11 1.12876e+11 1.832e+11 1.31054e+11 1.09362e+11 1.05956e+11 1.8516e+11 1.67266e+11 1.01672e+11 9.88463e+10 9.05873e+10 1.24745e+11 8.92172e+10 9.88675e+10
threshold=3.3840000000000008 -117.52499999999999 37.935000000000009 -121.23499999999999 34.605000000000011 1.0000000180025095e-35 1.0000000180025095e-35 -119.175 -120.48499999999999 33.775000000000013 34.255000000000003 -118.34499999999998 34.185000000000009 34.095000000000006 33.715000000000011 26.500000000000004 -117.925 34.105000000000011 -118.35499999999998 -119.26499999999999 1310.5000000000002 34.455000000000005 36.805000000000007 -118.30499999999999 39.845000000000006 33.635000000000012 -118.00499999999998 34.175000000000004 -119.34499999999998 34.165000000000006
decision_type=2 2 2 2 2 2 2 2 2 2 2 2 2 2 2 2 2 2 2 2 2 2 2 2 2 2 2 2 2 2
left_child=21 2 3 5 6 -2 9 -8 -6 -5 11 12 -9 14 15 -13 -15 -11 19 -19 -16 23 -23 28 -24 -17 27 -20 -1 -30
right_child=1 -3 -4 4 8 -7 7 10 -10 17 -12 13 -14 16 20 25 -18 18 26 -21 -22 22 24 -25 -26 -27 -28 -29 29 -31
leaf_value=4694.8763661384583 1293.5166392734197 -634.24977993063635 -409.43314291026496 6142.8291354064941 65.754358749793326 5710.9282702534147 10241.968656250001 3785.4815712811196 -3775.2203551351531 186.12914540241044 -2013.6914113453456 893.07584180559434 -638.46129052697165 3012.4477918275647 -2379.8021718135496 12928.906912364131 -2960.7657524320816 3659.8206321922512 9108.4544593098963 -1834.8406393178307 -264.49182557658213 -1843.9989093223824 -246.10241730090331 -416.81458725742561 -1981.7382047435651 3845.1222006835942 2698.7176828936117 2620.7190743582591 1671.3242296299259 -558.92139556979839
leaf_weight=64 2199 1280 1460 100 189 119 25 584 484 249 224 385 287 284 294 23 36 74 75 105 1449 1242 3222 3780 377 25 121 49 522 321
leaf_count=64 2199 1280 1460 100 189 119 25 584 484 249 224 385 287 284 294 23 36 74 75 105 1449 1242 3222 3780 377 25 121 49 522 321
internal_value=0 436.005 590.974 788.887 453.959 1520.29 937.052 618.316 -2696.55 2428.06 551.317 721.962 2327.76 161.604 -158.816 1702.83 2340.46 1876.09 2868.54 436.695 -621.291 -463.095 -791.222 -124.188 -427.913 8197.77 4645.28 6544.75 1095.36 822.085
internal_weight=0 10120 8840 7380 5062 2318 4389 3616 673 773 3591 3367 871 2496 2176 433 320 673 424 179 1743 9528 4841 4687 3599 48 245 124 907 843
internal_count=19648 10120 8840 7380 5062 2318 4389 3616 673 773 3591 3367 871 2496 2176 433 320 673 424 179 1743 9528 4841 4687 3599 48 245 124 907 843
is_linear=0
shrinkage=0.1


Tree=26
num_leaves=31
num_cat=0
split_feature=7 7 0 1 2 1 0 1 0 1 0 1 1 0 0 0 1 8 11 1 0 0 12 0 9 4 5 6 5 5
split_gain=3.21341e+11 1.51311e+11 1.1297e+11 1.72915e+11 1.47283e+11 1.06863e+11 1.29727e+11 1.49659e+11 4.20383e+11 3.39622e+11 1.92918e+11 3.02571e+11 2.16547e+11 1.60328e+11 1.57345e+11 1.46929e+11 1.45876e+11 1.2046e+11 1.16174e+11 1.13252e+11 8.98923e+10 1.63261e+11 8.82474e+10 1.68552e+11 8.75256e+10 8.75185e+10 1.37311e+11 1.4492e+11 9.79937e+10 9.78817e+10
threshold=3.3840000000000008 6.3714000000000004 -117.52499999999999 33.675000000000004 26.500000000000004 39.405000000000008 -122.35499999999998 34.185000000000009 -118.36499999999999 34.095000000000006 -120.48499999999999 37.57500000000001 34.665000000000006 -122.02499999999999 -119.21499999999999 -118.93499999999999 37.275000000000013 1.0000000180025095e-35 1.0000000180025095e-35 37.235000000000007 -118.00499999999998 -118.15499999999999 1.0000000180025095e-35 -118.145 1.0000000180025095e-35 658.50000000000011 988.50000000000011 372.50000000000006 1946.5000000000002 609.50000000000011
decision_type=2 2 2 2 2 2 2 2 2 2 2 2 2 2 2 2 2 2 2 2 2 2 2 2 2 10 2 2 2 2
left_child=25 2 3 4 -2 6 -5 8 15 22 11 13 14 16 17 -8 -9 -12 -13 24 21 -11 -10 -24 -15 26 27 29 -27 -1
right_child=1 -3 -4 5 -6 -7 7 10 9 20 12 18 -14 19 -16 -17 -18 -19 -20 -21 -22 -23 23 -25 -26 28 -28 -29 -30 -31
leaf_value=193.35699149651259 1930.9173376658609 1469.6844719349256 -668.095405623744 1608.0922368386518 8610.2531994628916 -3326.9874121475223 -2658.9991842215404 -1669.1525295091715 -461.97072285785691 1496.1566100021889 1580.1306798016585 81.043530433855565 -2890.1083277471862 1884.0793647567089 -837.49071060552842 4087.8746166382934 4445.4352475058713 9550.5648607336971 -1689.1677703204907 -29.545150655688662 733.93104482966373 6301.3504968836687 -111.63173796418425 8430.3884373520359 7805.6152675083713 950.28179813641054 -1023.5422302863016 1472.1476192906218 -392.47285647994181 -926.40715200922625
leaf_weight=1476 189 1155 1158 736 40 80 35 46 1907 145 108 950 480 230 615 415 257 23 608 528 139 138 77 33 28 879 3615 477 1424 1657
leaf_count=1476 189 1155 1158 736 40 80 35 46 1907 145 108 950 480 230 615 415 257 23 608 528 139 138 77 33 28 879 3615 477 1424 1657
internal_value=0 392.405 253.614 390.33 3097.61 308.518 347.307 210.079 754.786 236.644 -196.236 284.083 -1233.27 1562.89 -167.211 3563.12 3517.15 2979.52 -609.771 809.536 2816.46 3839.33 -303.109 2450.97 2526.73 -416.786 -587.897 -151.647 120.024 -398.871
internal_weight=0 10120 8965 7807 229 7578 7498 6762 2889 2439 3873 2647 1226 1089 746 450 303 131 1558 786 422 283 2017 110 258 9528 7225 3610 2303 3133
internal_count=19648 10120 8965 7807 229 7578 7498 6762 2889 2439 3873 2647 1226 1089 746 450 303 131 1558 786 422 283 2017 110 258 9528 7225 3610 2303 3133
is_linear=0
shrinkage=0.1


Tree=27
num_leaves=31
num_cat=0
split_feature=7 3 5 3 1 5 3 7 2 0 0 1 2 1 0 0 12 1 0 0 0 3 5 5 3 5 6 0 5 0
split_gain=2.62118e+11 1.30826e+11 1.26341e+11 1.17693e+11 1.07912e+11 1.00921e+11 1.3168e+11 9.78266e+10 8.57136e+10 7.63542e+10 9.68245e+10 9.21257e+10 9.87199e+10 9.12168e+10 1.3345e+11 1.11865e+11 1.09859e+11 1.01284e+11 9.34429e+10 7.67255e+10 7.94102e+10 7.52559e+10 9.26392e+10 8.61758e+10 7.77088e+10 8.77241e+10 7.49668e+10 1.27837e+11 1.00903e+11 8.41818e+10
threshold=3.9229000000000003 1623.5000000000002 679.50000000000011 1185.5000000000002 39.845000000000006 912.50000000000011 2267.5000000000005 1.9481000000000002 30.500000000000004 -122.35499999999998 -122.62499999999999 37.765000000000008 23.500000000000004 34.605000000000011 -120.645 -117.52499999999999 1.0000000180025095e-35 33.57500000000001 -119.30499999999999 -122.13499999999998 -122.23499999999999 3553.5000000000005 1793.5000000000002 1485.5000000000002 4507.5000000000009 2470.5000000000005 510.50000000000006 -118.15499999999999 1356.5000000000002 -118.32499999999997
decision_type=2 2 2 2 2 2 2 2 2 2 2 2 2 2 2 2 2 2 2 2 2 2 2 2 2 2 2 2 2 2
left_child=4 2 3 -2 7 -3 -7 -1 21 10 -9 -12 -13 15 16 17 19 -11 -19 20 -15 23 -23 -8 -24 -26 27 29 -28 -20
right_child=1 5 -4 -5 -6 6 8 9 -10 13 11 12 -14 14 -16 -17 -18 18 26 -21 -22 22 24 -25 25 -27 28 -29 -30 -31
leaf_value=-848.43760133725209 -411.10467290716662 1664.7669373799008 -1411.5280580298156 1759.4622746917253 -1869.2158148749559 -606.55401517170662 513.03894129249284 -591.11661976139726 1561.2330420494081 6393.2881665911 482.3375307706508 -637.56952500454224 4831.4543425224201 -346.30350692899606 -1439.9669815791347 -632.23561752191927 2218.8212055269178 3824.9991045500101 349.52534021932979 -38.923831050053984 -2830.8899595012581 2468.4206380481965 -689.8914619909466 -1188.0469623802535 2537.2897399537401 471.46946073475868 3335.3854581231944 817.20475043139822 558.91064110299817 -1372.6410908952546
leaf_weight=2110 708 898 643 386 417 867 848 246 988 28 205 43 142 304 1153 1467 182 76 443 1966 223 316 362 459 277 797 146 893 1265 790
leaf_count=2110 708 898 643 386 417 867 848 246 988 28 205 43 142 304 1153 1467 182 76 443 1966 223 316 362 459 277 797 146 893 1265 790
internal_value=0 462.401 -299.092 354.744 -288.509 689.985 511.85 -232.084 751.449 -96.2184 962.446 1942.39 3560.28 -171.566 -540.634 105.017 -152.996 402.065 355.634 -326.149 -1397.66 489.903 918.305 -84.3585 577.193 1004.27 281.087 -93.9713 846.2 -753.89
internal_weight=0 7549 1737 1094 12099 5812 4914 11682 4047 9572 636 390 185 8936 3828 5108 2675 3641 3613 2493 527 3059 1752 1307 1436 1074 3537 2126 1411 1233
internal_count=19648 7549 1737 1094 12099 5812 4914 11682 4047 9572 636 390 185 8936 3828 5108 2675 3641 3613 2493 527 3059 1752 1307 1436 1074 3537 2126 1411 1233
is_linear=0
shrinkage=0.1


Tree=28
num_leaves=31
num_cat=0
split_feature=7 0 1 0 1 0 1 2 0 0 1 1 9 1 3 7 11 1 2 5 4 4 5 6 0 5 2 5 4 5
split_gain=2.1798e+11 1.21925e+11 1.14665e+11 1.14437e+11 1.48396e+11 2.45656e+11 2.36413e+11 2.15343e+11 2.04545e+11 1.68781e+11 1.3007e+11 1.07176e+11 1.03017e+11 1.01656e+11 1.00132e+11 9.10835e+10 7.61511e+10 9.76704e+10 9.94777e+10 7.37903e+10 1.32087e+11 1.30668e+11 1.32986e+11 9.89205e+10 1.15883e+11 1.07442e+11 9.13153e+10 9.41294e+10 8.8135e+10 7.34468e+10
threshold=4.8827500000000006 -116.22499999999998 39.405000000000008 -122.38499999999998 34.525000000000013 -120.645 37.595000000000006 23.500000000000004 -119.34499999999998 -122.15499999999999 37.57500000000001 38.715000000000011 1.0000000180025095e-35 32.725000000000001 196.50000000000003 7.8581500000000011 1.0000000180025095e-35 37.755000000000003 21.500000000000004 658.50000000000011 238.50000000000003 327.50000000000006 1127.5000000000002 516.50000000000011 -117.97499999999998 1946.5000000000002 27.500000000000004 531.50000000000011 318.50000000000006 206.50000000000003
decision_type=2 2 2 2 2 2 2 2 2 2 2 2 2 2 2 2 2 2 2 2 8 10 2 2 2 2 2 2 10 2
left_child=1 2 3 11 8 6 9 29 -5 -6 -7 12 16 -10 -2 -16 -1 -18 -19 20 -15 -21 -23 -24 25 -25 -22 -28 -29 -8
right_child=14 -3 -4 4 5 10 7 -9 13 -11 -12 -13 -14 19 15 -17 17 18 -20 21 26 22 23 24 -26 -27 27 28 -30 -31
leaf_value=271.10693228163689 -4383.8117488763273 -2748.8417807226024 -1446.6797592543369 4553.9794215230113 4733.7815658436657 -1798.9517484890894 5971.2346909179687 -1202.44465239745 -1641.1378703784658 700.13004053636359 807.28830788959567 -1579.0487993385052 8275.4561755952382 215.0797102511508 577.21361802370768 2463.7536676718973 64.952199180866117 -2475.7971959997108 3922.4307757593483 -875.05086609314537 866.8091885324252 1242.9182074022915 -663.486791579704 1977.6132348363617 -376.78124848716146 258.03027668720188 8743.3563549804694 1168.1407103220622 7867.6586464210795 480.38861299266591
leaf_weight=441 39 181 642 103 115 1629 25 1919 333 1059 217 145 21 618 3689 275 145 27 243 1284 118 1074 1476 598 1214 926 40 72 27 953
leaf_count=441 39 181 642 103 115 1629 25 1919 333 1059 217 145 21 618 3689 275 145 27 243 1284 118 1074 1476 598 1214 926 40 72 27 953
internal_value=0 -168.482 -138.28 -81.6081 -157.225 -535.726 -101.837 -586.952 126.879 1095.25 -1492.58 939.435 1355.83 68.2686 658.482 708.091 1186.08 2158.37 3282.61 144.706 1007.39 29.8476 249.57 -3.59995 352.132 932.775 2912.65 4649.4 2995.28 620.748
internal_weight=0 15645 15464 14822 13800 5917 4071 2897 7883 1174 1846 1022 877 7780 4003 3964 856 415 270 7447 875 6572 5288 4214 2738 1524 257 139 99 978
internal_count=19648 15645 15464 14822 13800 5917 4071 2897 7883 1174 1846 1022 877 7780 4003 3964 856 415 270 7447 875 6572 5288 4214 2738 1524 257 139 99 978
is_linear=0
shrinkage=0.1


Tree=29
num_leaves=31
num_cat=0
split_feature=7 4 5 4 5 2 4 5 5 6 3 0 1 0 0 8 3 0 1 4 6 1 0 1 0 0 7 2 1 12
split_gain=1.78573e+11 1.06687e+11 1.62609e+11 1.75105e+11 1.61996e+11 1.03081e+11 9.42085e+10 1.06368e+11 8.85522e+10 1.03188e+11 8.14623e+10 8.06865e+10 1.00241e+11 1.66499e+11 1.37077e+11 1.43335e+11 9.97724e+10 8.28872e+10 7.71547e+10 7.65058e+10 7.5243e+10 7.1075e+10 8.95115e+10 6.92955e+10 1.56374e+11 7.01277e+10 8.54158e+10 6.69955e+10 1.0215e+11 8.32188e+10
threshold=5.124950000000001 653.50000000000011 994.50000000000011 347.50000000000006 1946.5000000000002 29.500000000000004 385.50000000000006 1334.5000000000002 650.50000000000011 247.50000000000003 1214.5000000000002 -117.91499999999998 34.185000000000009 -121.36499999999999 -118.36499999999999 1.0000000180025095e-35 1347.5000000000002 -118.66499999999998 34.135000000000012 900.50000000000011 486.50000000000006 37.935000000000009 -122.40499999999999 34.665000000000006 -120.645 -119.26499999999999 6.5364000000000013 17.500000000000004 37.935000000000009 1.0000000180025095e-35
decision_type=2 10 2 10 2 2 8 2 2 2 2 2 2 2 2 2 2 2 2 10 2 2 2 2 2 2 2 2 2 2
left_child=1 2 3 8 5 -3 -4 20 9 -1 -10 12 14 21 17 -16 -17 -2 -11 -6 -8 -14 -23 25 -25 -15 -27 -5 29 -29
right_child=11 4 6 27 19 -7 7 -9 10 18 -12 -13 13 23 15 16 -18 -19 -20 -21 -22 22 -24 24 -26 26 -28 28 -30 -31
leaf_value=-67.452309356639006 -348.17044542100695 554.27780403837869 -1337.6444177364747 -286.77384753379096 -884.07825892044605 2330.6626373197596 -253.90856761959469 -834.57102595835136 -1613.9618028632117 4278.8055416968564 -283.82992762013151 -163.63332420078603 1593.1502982060713 3964.8502616686696 5477.0902829214247 -3137.4242476029831 1044.9877313559398 4905.7451191433229 871.81809000825672 247.2230628383667 1121.7997458020702 2584.4931627428214 -1578.5265201680145 -6.6606990720404955 -5501.4295370483405 -1664.1497005329795 2182.2385022575472 1389.3551760658574 -64.23888929244184 3701.089488560945
leaf_weight=2117 36 980 1495 314 947 490 1408 2679 663 93 1507 869 931 39 65 66 420 181 233 1621 554 74 171 122 90 201 81 638 357 206
leaf_count=2117 36 980 1495 314 947 490 1408 2679 663 93 1507 869 931 39 65 66 420 181 233 1621 554 74 171 122 90 201 81 638 357 206
internal_value=0 -136.581 -283.373 80.9939 309.248 1146.41 -647.265 -424.874 -225.346 187.583 -690.225 665.435 956.296 529.843 1905.26 1066.85 477.006 4034.13 1843.75 -169.966 134.543 1194.34 -321.125 -936.294 -2339.35 -9.66857 -559.336 1013.76 1353.79 1953.59
internal_weight=0 16302 12264 6128 4038 1470 6136 4641 4613 2443 2170 3346 2477 1709 768 551 486 217 326 2568 1962 1176 245 533 212 321 282 1515 1201 844
internal_count=19648 16302 12264 6128 4038 1470 6136 4641 4613 2443 2170 3346 2477 1709 768 551 486 217 326 2568 1962 1176 245 533 212 321 282 1515 1201 844
is_linear=0
shrinkage=0.1


Tree=30
num_leaves=31
num_cat=0
split_feature=7 3 5 3 5 0 1 1 4 5 6 2 4 6 5 5 6 5 1 2 1 0 1 9 1 0 1 0 0 8
split_gain=1.5311e+11 9.63548e+10 1.06986e+11 1.06876e+11 8.85046e+10 7.95274e+10 1.60163e+11 7.93646e+10 7.81697e+10 1.13e+11 1.04161e+11 1.22456e+11 9.92387e+10 8.0104e+10 1.01343e+11 7.80741e+10 9.14651e+10 7.7895e+10 7.76349e+10 8.2354e+10 9.29023e+10 7.67767e+10 1.76795e+11 1.41446e+11 1.34521e+11 1.22952e+11 1.66546e+11 8.96024e+10 8.63026e+10 8.23019e+10
threshold=3.8253500000000007 1227.5000000000002 679.50000000000011 1633.5000000000002 601.50000000000011 -117.73499999999999 33.635000000000012 37.965000000000011 727.50000000000011 788.50000000000011 293.50000000000006 26.500000000000004 440.50000000000006 357.50000000000006 1111.5000000000002 464.50000000000006 196.50000000000003 2313.5000000000005 33.57500000000001 36.500000000000007 32.985000000000007 -121.91499999999998 34.255000000000003 1.0000000180025095e-35 37.515000000000008 -120.48499999999999 34.665000000000006 -119.21499999999999 -122.23499999999999 1.0000000180025095e-35
decision_type=2 2 2 2 2 2 2 2 10 2 2 2 8 2 2 2 2 2 2 2 2 2 2 2 2 2 2 2 2 2
left_child=8 4 -3 -4 -2 6 -5 21 9 10 15 -12 -13 -11 -15 -1 -17 -10 19 20 -7 24 23 -23 -8 29 27 -27 -26 -24
right_child=1 2 3 5 -6 18 7 -9 17 13 11 12 -14 14 -16 16 -18 -19 -20 -21 -22 22 25 -25 28 26 -28 -29 -30 -31
leaf_value=554.66534674181582 -118.77202836723168 1867.4209232083406 -941.53289682988895 8196.8932861328121 -2534.7894158999129 -893.10666670699015 3075.9575050817671 -344.08469320613403 897.492842565621 -1128.0072114672823 -442.75021537241309 1954.442646962525 6880.9578817328629 501.91792433559613 -618.30758636974144 -1814.0880114267247 -63.374349641078176 -270.0803368180006 -1277.5643446051556 6446.6443337180399 1621.3053513791626 853.78892709097636 2564.9559429941951 4424.2594738976431 1730.7060355778647 2612.4337314219956 -3617.9628098043904 -1176.3496994821651 -418.24050754874099 -285.45834666635386
leaf_weight=1026 721 505 578 28 192 333 362 736 1107 1938 198 247 49 1049 3509 427 991 1181 460 22 263 1858 148 118 401 89 232 209 350 321
leaf_count=1026 721 505 578 28 192 333 362 736 1107 1938 198 247 49 1049 3509 427 991 1181 460 22 263 1858 148 118 401 89 232 209 350 321
internal_value=0 339.482 465.285 356.484 -626.85 483.002 655.618 611.846 -229.545 -356.719 157.902 1482.29 2769.98 -589.472 -360.494 -109.793 -590.564 294.825 -293.928 438.228 216.441 783.951 518.879 1067.01 1492.48 -565.302 -1608.9 -44.8003 729.2 614.033
internal_weight=0 7926 7013 6508 913 5930 4852 4824 11722 9434 2938 494 296 6496 4558 2444 1418 2288 1078 618 596 4088 2975 1976 1113 999 530 298 751 469
internal_count=19648 7926 7013 6508 913 5930 4852 4824 11722 9434 2938 494 296 6496 4558 2444 1418 2288 1078 618 596 4088 2975 1976 1113 999 530 298 751 469
is_linear=0
shrinkage=0.1


Tree=31
num_leaves=31
num_cat=0
split_feature=3 5 4 5 4 5 5 9 1 1 3 0 1 6 0 1 0 5 3 7 1 0 2 1 5 6 3 1 0 1
split_gain=1.4129e+11 1.52303e+11 1.86071e+11 1.52087e+11 1.57438e+11 1.48608e+11 1.26609e+11 1.06276e+11 1.12911e+11 9.39672e+10 9.03507e+10 8.61662e+10 9.16096e+10 7.75571e+10 6.95341e+10 8.78044e+10 8.84567e+10 6.92393e+10 6.80496e+10 6.7966e+10 6.35727e+10 6.22045e+10 6.20579e+10 9.75425e+10 7.26393e+10 6.42816e+10 5.76832e+10 5.76646e+10 7.0294e+10 5.7123e+10
threshold=3756.5000000000005 1620.5000000000002 511.50000000000006 994.50000000000011 268.50000000000006 1946.5000000000002 590.50000000000011 1.0000000180025095e-35 37.595000000000006 34.035000000000004 2333.5000000000005 -118.37499999999999 33.885000000000012 852.50000000000011 -117.15499999999999 33.095000000000006 -117.24499999999999 1292.5000000000002 833.50000000000011 7.0061500000000008 37.735000000000007 -118.22499999999998 23.500000000000004 37.905000000000008 1233.5000000000002 534.50000000000011 1214.5000000000002 34.145000000000003 -118.27499999999999 37.32500000000001
decision_type=2 2 10 2 10 2 2 2 2 2 2 2 2 2 2 2 2 2 2 2 2 2 2 2 2 2 2 2 2 2
left_child=1 2 3 4 6 -2 18 8 9 11 -5 -6 14 -3 15 16 -13 -12 -1 -7 -20 -14 -4 24 -24 -26 -8 28 -11 -29
right_child=5 13 22 10 7 19 26 -9 -10 27 17 12 21 -15 -16 -17 -18 -19 20 -21 -22 -23 23 -25 25 -27 -28 29 -30 -31
leaf_value=-309.79095504941552 1826.9493180386792 -950.79757368516721 213.84612240932958 -940.2897381842655 3947.913861933841 110.60312113842178 -1649.8236939344115 -158.89658028145095 -73.082100731230128 6084.7069742202766 647.53911719202404 8805.4756316154235 -2899.2959417510451 1062.2052963293693 -795.53652645874035 1024.0630501245071 2226.9345646158854 -826.00478530037674 1517.7560108689179 2521.3580944402433 -173.7610321608571 585.69932218161966 2899.1997270143947 -577.16338128714722 -172.52452045303892 1782.9599374392646 -407.46863537091775 1290.0014133754996 1761.8241981721262 3654.6055579797548
leaf_weight=1287 759 2539 909 2871 79 2376 753 1184 685 80 796 31 114 207 150 397 60 532 537 123 379 93 338 232 251 509 742 430 71 134
leaf_count=1287 759 2539 909 2871 79 2376 753 1184 685 80 796 31 114 207 150 397 60 532 537 123 379 93 338 232 251 509 742 430 71 134
internal_value=0 -119.559 17.1961 -146.428 132.328 601.465 -322.926 612.239 1005.11 1455.72 -624.807 789.658 494.389 -799.053 1087.47 1666.27 4467.98 57.2339 159.092 229.26 817.882 -1333.57 850.664 1285.9 1679.56 1137.14 -1033.22 2316.48 4052.09 1851.8
internal_weight=0 16390 13644 11405 7206 3258 3698 3508 2324 1639 4199 924 845 2746 638 488 91 1328 2203 2499 916 207 2239 1330 1098 760 1495 715 151 564
internal_count=19648 16390 13644 11405 7206 3258 3698 3508 2324 1639 4199 924 845 2746 638 488 91 1328 2203 2499 916 207 2239 1330 1098 760 1495 715 151 564
is_linear=0
shrinkage=0.1


Tree=32
num_leaves=31
num_cat=0
split_feature=0 1 0 1 0 1 0 1 1 0 0 1 0 2 2 1 0 1 8 7 11 1 1 0 2 0 0 0 1 0
split_gain=1.28925e+11 1.20256e+11 1.13191e+11 1.36552e+11 3.0276e+11 2.53165e+11 2.19841e+11 2.61778e+11 2.09702e+11 3.16853e+11 1.99457e+11 1.84697e+11 2.30993e+11 1.73791e+11 1.47529e+11 1.45014e+11 2.27348e+11 1.37376e+11 1.35559e+11 1.22948e+11 1.14591e+11 1.12112e+11 1.0228e+11 9.46316e+10 8.86372e+10 8.24434e+10 8.18791e+10 8.02747e+10 7.83634e+10 1.09634e+11
threshold=-116.22499999999998 39.335000000000008 -122.38499999999998 34.205000000000005 -118.36499999999999 34.155000000000008 -120.645 37.595000000000006 34.055000000000007 -117.98499999999999 -122.07499999999997 33.855000000000011 -118.30499999999999 23.500000000000004 33.500000000000007 34.605000000000011 -119.34499999999998 37.275000000000013 1.0000000180025095e-35 5.5772000000000004 1.0000000180025095e-35 37.755000000000003 37.57500000000001 -118.23499999999999 19.500000000000004 -117.40499999999999 -119.79499999999999 -121.21499999999999 32.725000000000001 -117.15499999999999
decision_type=2 2 2 2 2 2 2 2 2 2 2 2 2 2 2 2 2 2 2 2 2 2 2 2 2 2 2 2 2 2
left_child=1 2 20 4 5 -4 7 10 11 18 17 12 -6 27 -13 16 26 -5 -10 22 -1 -22 -17 -16 -23 -11 -8 -9 29 -14
right_child=-2 -3 3 6 8 -7 15 13 9 25 -12 14 28 -15 23 19 -18 -19 -20 -21 21 24 -24 -25 -26 -27 -28 -29 -30 -31
leaf_value=180.18899406797431 -2606.1606881547486 -1276.2704589710097 3427.2175732288688 -4095.8604338272762 5565.0857124234426 11.847732140765928 26.711384166370738 65.882281379289523 4639.1014198560397 270.86519397159049 590.26997509552643 11.106956989947093 5202.8851328125002 -947.61519679622961 -2325.1287660138551 -1612.814833006094 -617.24523177240826 3929.1724086398171 1622.9410372229613 -6022.169424333244 83.945325055803579 -1807.8434226989748 710.18327228867008 -748.78583446739708 3722.6474748642513 -1859.8645972772972 5187.7447284174905 1891.5612218439012 327.07662204126808 -1649.8120894553642
leaf_weight=712 188 685 527 23 81 369 44 1023 178 483 1526 1245 25 2216 688 1658 914 294 915 58 175 32 214 853 307 291 102 315 3154 353
leaf_count=712 188 685 527 23 81 369 44 1023 178 483 1526 1245 25 2216 688 1658 914 294 915 58 175 32 214 853 307 291 102 315 3154 353
internal_value=0 25.1777 72.6606 7.76208 274.652 2020.66 -283.789 97.2852 85.3912 1017.87 1064.42 -186.672 285.098 -404.242 -798.483 -971.636 -31.9216 3346.91 2114.14 -1487.75 1001.62 2139.48 -1347.26 -1452.57 3200.6 -530.223 3632.36 495.695 164.011 -1196.59
internal_weight=0 19460 18775 17549 9162 896 8387 5397 8266 1867 1843 6399 3613 3554 2786 2990 1060 317 1093 1930 1226 514 1872 1541 339 774 146 1338 3532 378
internal_count=19648 19460 18775 17549 9162 896 8387 5397 8266 1867 1843 6399 3613 3554 2786 2990 1060 317 1093 1930 1226 514 1872 1541 339 774 146 1338 3532 378
is_linear=0
shrinkage=0.1


Tree=33
num_leaves=31
num_cat=0
split_feature=3 0 1 0 5 5 4 5 3 5 4 5 2 1 0 1 3 5 1 3 1 0 1 2 1 1 3 7 2 2
split_gain=1.04867e+11 1.25181e+11 1.31568e+11 1.67379e+11 1.17172e+11 1.052e+11 1.29975e+11 1.02022e+11 8.91616e+10 8.06332e+10 9.61053e+10 8.20098e+10 7.75588e+10 6.56182e+10 6.5159e+10 8.80453e+10 6.32936e+10 9.03695e+10 5.93989e+10 6.05037e+10 5.70862e+10 8.24368e+10 5.5879e+10 5.54257e+10 5.53617e+10 5.45182e+10 5.0828e+10 5.07606e+10 4.93644e+10 4.84452e+10
threshold=3677.5000000000005 -117.15499999999999 33.095000000000006 -117.24499999999999 1946.5000000000002 1608.5000000000002 517.50000000000011 1152.5000000000002 2022.5000000000002 826.50000000000011 268.50000000000006 511.50000000000006 20.500000000000004 32.765000000000008 -117.77499999999999 33.755000000000003 5107.0000000000009 2772.5000000000005 37.735000000000007 1240.5000000000002 34.665000000000006 -120.10499999999998 33.885000000000012 51.500000000000007 37.875000000000007 34.245000000000012 976.50000000000011 4.800650000000001 50.500000000000007 26.500000000000004
decision_type=2 2 2 2 2 2 10 2 2 2 10 2 2 2 2 2 2 2 2 2 2 2 2 2 2 2 2 2 2 2
left_child=1 2 3 12 -2 6 7 8 9 10 11 18 -1 -5 15 -12 -6 -18 19 -4 23 24 -11 -10 -22 -7 -13 -23 -17 -8
right_child=4 -3 5 13 16 25 29 -9 20 22 14 26 -14 -15 -16 28 17 -19 -20 -21 21 27 -24 -25 -26 -27 -28 -29 -30 -31
leaf_value=875.15001720081682 1508.9131618007227 -1097.6856154955847 762.65749652601971 2918.1992309570314 -435.15952465203395 -290.19604467585606 278.46193347442585 -660.50495489883428 1362.7141406093833 707.4289316949239 5563.963854087272 -1621.1502343689867 7832.1302320577342 -775.44237032591855 -2008.3052515130294 637.19755074818931 1920.5382107968028 129.00395862603168 -363.05754637263374 6193.0187081473223 1698.090612718308 -1021.3776155137525 -763.43105103618927 5333.5430464895153 -30.939656774444941 -1253.4595724466565 -315.41915405922822 -5996.9521024263822 2508.5215090370179 1321.6854594409467
leaf_weight=22 866 1180 893 76 1045 1512 830 2375 469 299 41 406 59 131 76 1185 376 1121 650 21 327 97 1897 38 427 961 1122 26 160 960
leaf_count=22 866 1180 893 76 1045 1512 830 2375 469 299 41 406 59 131 76 1185 376 1121 650 21 327 97 1897 38 427 961 1122 26 160 960
internal_value=0 -105.832 -28.1171 2088.71 504.317 -69.3876 50.2771 -83.8884 84.4745 -65.4432 174.564 -141.322 5942.58 580.677 842.636 998.965 162.075 578.982 367.723 887.425 815.649 327.332 -563.164 1660.33 718.918 -664.517 -662.361 -2073.13 859.809 837.956
internal_weight=0 16240 15060 288 3408 14772 12299 10509 8134 6750 4554 3092 81 207 1462 1386 2542 1497 1564 914 1384 877 2196 507 754 2473 1528 123 1345 1790
internal_count=19648 16240 15060 288 3408 14772 12299 10509 8134 6750 4554 3092 81 207 1462 1386 2542 1497 1564 914 1384 877 2196 507 754 2473 1528 123 1345 1790
is_linear=0
shrinkage=0.1


Tree=34
num_leaves=31
num_cat=0
split_feature=1 0 1 0 1 0 1 0 1 0 2 0 1 0 0 0 7 1 1 0 1 0 0 6 2 1 1 0 0 9
split_gain=9.76921e+10 1.06471e+11 1.27764e+11 2.22232e+11 1.96359e+11 3.79874e+11 1.87176e+11 2.1242e+11 1.52677e+11 1.35005e+11 1.32171e+11 1.23568e+11 1.1352e+11 1.75621e+11 1.05856e+11 1.4368e+11 9.78099e+10 7.75219e+10 7.96567e+10 1.65548e+11 1.11389e+11 9.07325e+10 2.21798e+11 9.09903e+10 7.80889e+10 7.58462e+10 7.33625e+10 9.58311e+10 7.20012e+10 1.14896e+11
threshold=39.845000000000006 -117.47499999999998 34.205000000000005 -120.645 34.055000000000007 -118.38499999999998 33.855000000000011 -118.30499999999999 37.905000000000008 -121.21499999999999 36.500000000000007 -119.05499999999999 34.605000000000011 -119.34499999999998 -122.38499999999998 -122.56499999999998 5.5772000000000004 37.855000000000011 37.595000000000006 -122.07499999999997 37.235000000000007 -122.02499999999999 -122.23499999999999 50.500000000000007 20.500000000000004 37.57500000000001 38.255000000000003 -122.15499999999999 -117.98499999999999 1.0000000180025095e-35
decision_type=2 2 2 2 2 2 2 2 2 2 2 2 2 2 2 2 2 2 2 2 2 2 2 2 2 2 2 2 2 2
left_child=1 2 4 8 5 -1 7 -7 17 14 -8 -6 13 -5 15 -10 25 18 19 20 -4 22 24 -23 -20 -14 27 -16 29 -13
right_child=-2 -3 3 12 11 6 10 -9 9 -11 -12 28 16 -15 26 -17 -18 -19 21 -21 -22 23 -24 -25 -26 -27 -28 -29 -30 -31
leaf_value=3532.2770079662932 -1478.4437203544776 -540.75923429048032 -3905.5015669389209 3246.7846656067732 -3383.1765299294211 4971.1408722209044 -103.37214845457288 380.74253298204337 -195.9767936331327 1763.6962410259248 -1571.5680872211458 1433.0214106514816 -1400.4817295769753 -530.6339858859169 -3227.0631568938848 3490.1078476743346 -5292.2443403728939 2492.2426151529949 -3271.7034113566083 528.63309476284962 3453.5859366115142 7559.9708274147724 -2009.3453346401745 958.56845709823983 884.59596907410435 514.53661831883937 -390.99157298114886 -909.35407275176249 301.44191167413783 4137.4956366721162
leaf_weight=304 437 2763 22 146 55 107 1585 1742 488 280 1000 1337 1624 784 253 135 59 210 48 1526 316 22 511 410 776 237 1245 605 443 178
leaf_count=304 437 2763 22 146 55 107 1585 1742 488 280 1000 1337 1624 784 253 135 59 210 48 1526 316 22 511 410 776 237 1245 605 443 178
